{
  "version": "repr_46c561feb18ef281",
  "model": "negbin_glm_lnp",
  "family": "negbin",
  "dispersion_alpha": 53.25412977114573,
  "pearson_dispersion": 1.253732739039286,
  "intercept": -2.1269743035902775,
  "station_effects": {
    "haro_strait": 0.0
  },
  "kernels": {
    "diel": {
      "cos": [
        -0.2419408487140895,
        0.022740202068578852
      ],
      "sin": [
        -0.432560501771497,
        0.24393387291331572
      ]
    },
    "lunar": {
      "cos": [
        0.46447180697925117,
        0.06718725079508908
      ],
      "sin": [
        0.48502428221420135,
        -0.22792951343033982
      ]
    }
  },
  "kernel_curves": {
    "diel": {
      "phase": [
        0.0,
        0.005,
        0.01,
        0.015,
        0.02,
        0.025,
        0.03,
        0.035,
        0.04,
        0.045,
        0.05,
        0.055,
        0.06,
        0.065,
        0.07,
        0.075,
        0.08,
        0.085,
        0.09,
        0.095,
        0.1,
        0.105,
        0.11,
        0.115,
        0.12,
        0.125,
        0.13,
        0.135,
        0.14,
        0.145,
        0.15,
        0.155,
        0.16,
        0.165,
        0.17,
        0.17500000000000002,
        0.18,
        0.185,
        0.19,
        0.195,
        0.2,
        0.20500000000000002,
        0.21,
        0.215,
        0.22,
        0.225,
        0.23,
        0.23500000000000001,
        0.24,
        0.245,
        0.25,
        0.255,
        0.26,
        0.265,
        0.27,
        0.275,
        0.28,
        0.28500000000000003,
        0.29,
        0.295,
        0.3,
        0.305,
        0.31,
        0.315,
        0.32,
        0.325,
        0.33,
        0.335,
        0.34,
        0.34500000000000003,
        0.35000000000000003,
        0.355,
        0.36,
        0.365,
        0.37,
        0.375,
        0.38,
        0.385,
        0.39,
        0.395,
        0.4,
        0.405,
        0.41000000000000003,
        0.41500000000000004,
        0.42,
        0.425,
        0.43,
        0.435,
        0.44,
        0.445,
        0.45,
        0.455,
        0.46,
        0.465,
        0.47000000000000003,
        0.47500000000000003,
        0.48,
        0.485,
        0.49,
        0.495,
        0.5,
        0.505,
        0.51,
        0.515,
        0.52,
        0.525,
        0.53,
        0.535,
        0.54,
        0.545,
        0.55,
        0.555,
        0.56,
        0.5650000000000001,
        0.5700000000000001,
        0.5750000000000001,
        0.58,
        0.585,
        0.59,
        0.595,
        0.6,
        0.605,
        0.61,
        0.615,
        0.62,
        0.625,
        0.63,
        0.635,
        0.64,
        0.645,
        0.65,
        0.655,
        0.66,
        0.665,
        0.67,
        0.675,
        0.68,
        0.685,
        0.6900000000000001,
        0.6950000000000001,
        0.7000000000000001,
        0.705,
        0.71,
        0.715,
        0.72,
        0.725,
        0.73,
        0.735,
        0.74,
        0.745,
        0.75,
        0.755,
        0.76,
        0.765,
        0.77,
        0.775,
        0.78,
        0.785,
        0.79,
        0.795,
        0.8,
        0.805,
        0.81,
        0.8150000000000001,
        0.8200000000000001,
        0.8250000000000001,
        0.8300000000000001,
        0.835,
        0.84,
        0.845,
        0.85,
        0.855,
        0.86,
        0.865,
        0.87,
        0.875,
        0.88,
        0.885,
        0.89,
        0.895,
        0.9,
        0.905,
        0.91,
        0.915,
        0.92,
        0.925,
        0.93,
        0.935,
        0.9400000000000001,
        0.9450000000000001,
        0.9500000000000001,
        0.9550000000000001,
        0.96,
        0.965,
        0.97,
        0.975,
        0.98,
        0.985,
        0.99,
        0.995
      ],
      "value": [
        -0.21920064664551064,
        -0.21739645513271807,
        -0.21549022249818606,
        -0.21352858554401796,
        -0.21155761512218343,
        -0.20962259648765263,
        -0.20776781356356494,
        -0.2060363380063659,
        -0.2044698239390696,
        -0.20310830919755896,
        -0.20199002390822787,
        -0.2011512071853941,
        -0.2006259327038951,
        -0.2004459438662482,
        -0.20064049924485605,
        -0.20123622893812318,
        -0.2022570024351852,
        -0.20372380853741096,
        -0.20565464783610973,
        -0.2080644381951508,
        -0.21096493363468077,
        -0.21436465695801776,
        -0.21826884640832495,
        -0.22267941658503168,
        -0.22759493379241894,
        -0.2330106059345267,
        -0.2389182870118193,
        -0.24530649621609063,
        -0.25216045156113087,
        -0.2594621179279569,
        -0.2671902693451502,
        -0.2753205652672899,
        -0.2838256405578377,
        -0.2926752088273517,
        -0.3018361787237976,
        -0.3112727827192079,
        -0.3209467178862123,
        -0.3308172981092349,
        -0.3408416171286175,
        -0.3509747217717649,
        -0.36116979468380256,
        -0.37137834583133633,
        -0.38155041201689166,
        -0.391634763608599,
        -0.4015791176598344,
        -0.4113303565669353,
        -0.4208347513898878,
        -0.43003818894113344,
        -0.43888640173142845,
        -0.447325199849097,
        -0.4553007038400758,
        -0.4627595776509139,
        -0.4696492606953669,
        -0.4759181981074362,
        -0.4815160682496269,
        -0.4863940065548257,
        -0.49050482479348123,
        -0.4938032248746671,
        -0.49624600631004095,
        -0.4977922664936207,
        -0.4984035929775658,
        -0.49804424695469324,
        -0.49668133719214,
        -0.49428498369727414,
        -0.49082847043652966,
        -0.4862883864701108,
        -0.48064475491034186,
        -0.47388114915863755,
        -0.46598479592545206,
        -0.4569466645889444,
        -0.44676154250126343,
        -0.435428095906109,
        -0.4229489161873372,
        -0.40933055122564277,
        -0.3945835216985264,
        -0.3787223222176356,
        -0.3617654072568852,
        -0.343735161884334,
        -0.3246578573703301,
        -0.30456359180374315,
        -0.28348621590693324,
        -0.26146324429821066,
        -0.23853575250773376,
        -0.21474826010878995,
        -0.1901486003810528,
        -0.16478777697541613,
        -0.13871980810125506,
        -0.11200155880613799,
        -0.08469256196505451,
        -0.05685482864080421,
        -0.028552648519265228,
        0.00014761883745087467,
        0.029177761140502315,
        0.0584679381136554,
        0.08794691297938143,
        0.11754228982171748,
        0.1471807559323196,
        0.17678832822608465,
        0.20629060279619826,
        0.2356130066656037,
        0.26468105078266824,
        0.2934205833033701,
        0.3217580422005638,
        0.3496207062429045,
        0.3769369433917564,
        0.40363645567385986,
        0.42965051960069983,
        0.4549122212222657,
        0.4793566849232571,
        0.5029212950935903,
        0.5255459098322961,
        0.5471730658743801,
        0.5677481739639039,
        0.5872197039332244,
        0.6055393587879382,
        0.6226622371393884,
        0.6385469833714918,
        0.6531559249759362,
        0.666455196539274,
        0.6784148499169682,
        0.6890089501827485,
        0.6982156569965576,
        0.70601729109068,
        0.712400385631109,
        0.7173557222696229,
        0.7208783517611582,
        0.7229675990806725,
        0.7236270530335253,
        0.7228645404132646,
        0.7206920848203333,
        0.7171258503143735,
        0.7121860701312884,
        0.7058969607537775,
        0.6982866216804638,
        0.6893869212937789,
        0.6792333692802273,
        0.6678649761083146,
        0.6553241001190939,
        0.641656282831756,
        0.6269100731118012,
        0.6111368408918681,
        0.5943905811751287,
        0.5767277090881077,
        0.5582068467837238,
        0.5388886030261213,
        0.5188353463163808,
        0.4981109724423092,
        0.47678066735618385,
        0.45491066630141025,
        0.43256801012254315,
        0.40982029970291833,
        0.3867354494802619,
        0.3633814409929896,
        0.33982607740854937,
        0.31613673998005404,
        0.2923801473686185,
        0.26862211875634673,
        0.244927341658767,
        0.22135914532585355,
        0.19797928059758943,
        0.17484770705349795,
        0.15202238826570708,
        0.12955909593213116,
        0.10751122363029797,
        0.08592961089344753,
        0.06486237826884586,
        0.044354773974034756,
        0.024449032720112424,
        0.005184247222288274,
        -0.01340374713287315,
        -0.03128247404680437,
        -0.04842290413243083,
        -0.06479952849501763,
        -0.08039041782043482,
        -0.0951772667786773,
        -0.10914542360899576,
        -0.12228390481196796,
        -0.1345853949331005,
        -0.14604623148180387,
        -0.1566663750886333,
        -0.16644936506228994,
        -0.1754022605657876,
        -0.18353556768820628,
        -0.1908631527443222,
        -0.19740214218892888,
        -0.20317280958560321,
        -0.20819845012084764,
        -0.21250524320372116,
        -0.21612210373808435,
        -0.21908052269923198,
        -0.22141439768880034,
        -0.2231598541812428,
        -0.22435505821171794,
        -0.22504002128877945,
        -0.22525639834566827,
        -0.2250472795711631,
        -0.2244569769847411,
        -0.22353080664113473,
        -0.22231486736618028,
        -0.2208558169390497
      ],
      "ci_lo": [
        -0.6993143270053228,
        -0.6975810205600469,
        -0.6957387607565207,
        -0.6938347825320942,
        -0.6919157954027407,
        -0.6900277595196203,
        -0.6882156652895752,
        -0.6865233174649894,
        -0.6849931245920522,
        -0.6836658946867842,
        -0.682580637985218,
        -0.6817743775879788,
        -0.6812819687902192,
        -0.6811359278555098,
        -0.6813662709569512,
        -0.6820003639705361,
        -0.6830627837647504,
        -0.684575191586666,
        -0.6865562190984427,
        -0.6890213675693748,
        -0.6919829206774952,
        -0.6954498713214501,
        -0.6994278627880508,
        -0.7039191445637435,
        -0.7089225430194381,
        -0.7144334471378853,
        -0.7204438093913155,
        -0.7269421618145981,
        -0.7339136472559881,
        -0.7413400657238594,
        -0.74919993568399,
        -0.7574685700981976,
        -0.7661181669317898,
        -0.7751179137946442,
        -0.7844341063191049,
        -0.7940302798175926,
        -0.8038673537041691,
        -0.8139037881075868,
        -0.8240957520489121,
        -0.8343973025048832,
        -0.8447605736290916,
        -0.8551359753570439,
        -0.8654724005784981,
        -0.8757174400213307,
        -0.8858176039558199,
        -0.8957185497967983,
        -0.9053653146537842,
        -0.9147025518560898,
        -0.9236747704611133,
        -0.9322265767396621,
        -0.9403029166222476,
        -0.9478493180849059,
        -0.9548121324522094,
        -0.9611387735987688,
        -0.966777954038599,
        -0.9716799169042393,
        -0.9757966628343501,
        -0.9790821708096088,
        -0.9814926120019537,
        -0.9829865557314823,
        -0.983525166658434,
        -0.9830723923745448,
        -0.9815951405984752,
        -0.9790634452238023,
        -0.9754506205150513,
        -0.9707334027971994,
        -0.9648920790368165,
        -0.957910601768277,
        -0.9497766898760425,
        -0.9404819148036327,
        -0.9300217718213152,
        -0.918395736047459,
        -0.9056073029826721,
        -0.8916640133809408,
        -0.8765774623477505,
        -0.8603632926212701,
        -0.8430411720588045,
        -0.8246347554165772,
        -0.8051716305761425,
        -0.7846832494350491,
        -0.763204843742471,
        -0.74077532622205,
        -0.7174371773838942,
        -0.6932363184852022,
        -0.6682219711541162,
        -0.6424465042438208,
        -0.6159652685334227,
        -0.5888364199384644,
        -0.5611207319369556,
        -0.532881397956258,
        -0.5041838245020078,
        -0.4750954158422922,
        -0.445685351088533,
        -0.4160243545388205,
        -0.3861844601698675,
        -0.3562387711802293,
        -0.3262612155000985,
        -0.29632629819179834,
        -0.2665088516702349,
        -0.2368837846740643,
        -0.2075258309163664,
        -0.17850929833825824,
        -0.1499078198803276,
        -0.12179410667513063,
        -0.0942397045494171,
        -0.0673147547074186,
        -0.041087759446513994,
        -0.01562535373411328,
        0.009007916550300199,
        0.032749808931142654,
        0.05554059046318699,
        0.07732323495226817,
        0.09804361058727401,
        0.11765065733554492,
        0.1360965534906849,
        0.153336870800317,
        0.16933071764146396,
        0.18404086975289263,
        0.19743388807683931,
        0.20948022330698596,
        0.22015430678523973,
        0.22943462743672793,
        0.23730379448033762,
        0.24374858570099067,
        0.24875998111954412,
        0.2523331819466085,
        0.25446761475756224,
        0.2551669208774468,
        0.2544389310161392,
        0.25229562524603283,
        0.24875307846627254,
        0.24383139154921485,
        0.23755460841605913,
        0.22995061933932792,
        0.2210510508199176,
        0.21089114243560136,
        0.19950961110595883,
        0.1869485032655817,
        0.17325303548283955,
        0.1584714241053612,
        0.14265470455546037,
        0.12585654093887688,
        0.10813302666822028,
        0.08954247683823013,
        0.07014521312322974,
        0.05000334199780204,
        0.02918052710955782,
        0.0077417566578213415,
        -0.014246893346119338,
        -0.036718499042906305,
        -0.059605531003586676,
        -0.0828400979012654,
        -0.10635419064629825,
        -0.1300799260507764,
        -0.15394978908718954,
        -0.1778968728090966,
        -0.2018551150083665,
        -0.22575953069418953,
        -0.2495464394935108,
        -0.27315368709085297,
        -0.29652085984757015,
        -0.31958949176641727,
        -0.34230326299676406,
        -0.36460818910879683,
        -0.3864528004014186,
        -0.4077883105482325,
        -0.42856877392869436,
        -0.4487512310371372,
        -0.4682958414106656,
        -0.48716600356763673,
        -0.5053284615014361,
        -0.5227533973291678,
        -0.5394145097515108,
        -0.5552890780380884,
        -0.5703580113119314,
        -0.5846058829667657,
        -0.5980209501115906,
        -0.6105951579981159,
        -0.6223241294477581,
        -0.633207139355828,
        -0.6432470744109868,
        -0.6524503782277498,
        -0.6608269821485229,
        -0.6683902220291258,
        -0.6751567413777555,
        -0.6811463812716366,
        -0.6863820575280188,
        -0.6908896256564693,
        -0.6946977341674334,
        -0.6978376668575914,
        -0.7003431747354915,
        -0.7022502982911318,
        -0.7035971808504764,
        -0.7044238737901901,
        -0.7047721344190966,
        -0.7046852173608588,
        -0.7042076602971443,
        -0.7033850649519329,
        -0.7022638742156657,
        -0.7008911463225287
      ],
      "ci_hi": [
        0.26091303371430147,
        0.2627881102946107,
        0.26475831576014863,
        0.2667776114440583,
        0.2688005651583739,
        0.27078256654431493,
        0.27268003816244535,
        0.2744506414522576,
        0.27605347671391295,
        0.2774492762916662,
        0.27860059016876215,
        0.2794719632171906,
        0.28003010338242895,
        0.28024404012301335,
        0.2800852724672392,
        0.2795279060942897,
        0.27854877889438,
        0.27712757451184405,
        0.27524692342622314,
        0.2728924911790732,
        0.2700530534081336,
        0.2667205574054145,
        0.2628901699714009,
        0.2585603113936802,
        0.2537326754346003,
        0.2484122352688319,
        0.2426072353676769,
        0.23632916938241694,
        0.22959274413372632,
        0.22241582986794556,
        0.21481939699368963,
        0.20682743956361777,
        0.19846688581611438,
        0.18976749613994087,
        0.1807617488715097,
        0.17148471437917678,
        0.16197391793174443,
        0.15226919188911703,
        0.14241251779167707,
        0.13244785896135336,
        0.12242098426148651,
        0.11237928369437122,
        0.10237157654471474,
        0.09244791280413267,
        0.08265936863615109,
        0.0730578366629277,
        0.06369581187400863,
        0.05462617397382302,
        0.04590196699825644,
        0.037576177041468095,
        0.029701508942096,
        0.022330162783078034,
        0.01551361106147564,
        0.009302377383896387,
        0.0037458175393452753,
        -0.001108096205412079,
        -0.005212986752612392,
        -0.008524278939725405,
        -0.010999400618128208,
        -0.012597977255759119,
        -0.01328201929669759,
        -0.013016101534841729,
        -0.011767533785804862,
        -0.00950652217074599,
        -0.0062063203580079995,
        -0.001843370143022216,
        0.0036025692161328338,
        0.010148303451001983,
        0.0178070980251383,
        0.02658858562574401,
        0.03649868681878832,
        0.047539544235241094,
        0.059709470607997694,
        0.07300291092965522,
        0.08741041895069773,
        0.10291864818599894,
        0.11951035754503397,
        0.13716443164790915,
        0.15585591583548236,
        0.17555606582756283,
        0.19623241192860447,
        0.21784883762562862,
        0.24036567236842668,
        0.2637397982676222,
        0.2879247703920106,
        0.3128709502929885,
        0.33852565233091264,
        0.3648333023261884,
        0.3917356080068465,
        0.4191717406746496,
        0.4470785274634774,
        0.4753906535171939,
        0.5040408733695376,
        0.5329602307661313,
        0.5620782861286304,
        0.5913233508236643,
        0.6206227273647378,
        0.6499029546439676,
        0.6790900572626315,
        0.7081097980052717,
        0.7368879324817028,
        0.7653504649449985,
        0.7934239042814553,
        0.8210355191609395,
        0.8481135913329299,
        0.8745876660551384,
        0.9003887986479137,
        0.9254497961786448,
        0.949705453296214,
        0.9730927812560379,
        0.9955512292014053,
        1.017022896796492,
        1.0374527373405338,
        1.056788750530904,
        1.0749821640851915,
        1.0919876034784597,
        1.1077632491015197,
        1.1222709801989799,
        1.1354765050017086,
        1.1473494765269505,
        1.1578635935802573,
        1.1669966865563874,
        1.1747307877010225,
        1.1810521855612273,
        1.1859514634197015,
        1.189423521575708,
        1.191467583403783,
        1.1920871851896038,
        1.19129014981039,
        1.1890885443946337,
        1.1854986221624744,
        1.1805407487133621,
        1.1742393130914959,
        1.1666226240215998,
        1.15772279176764,
        1.1475755961248533,
        1.1362203411106704,
        1.123699696972606,
        1.1100595301806724,
        1.0953487221182412,
        1.079618977228276,
        1.0629246214113803,
        1.045322391507995,
        1.0268712167292176,
        1.0076319929290127,
        0.9876673506349596,
        0.9670414177750606,
        0.9458195780545464,
        0.9240682259489399,
        0.9018545192879925,
        0.8792461304094233,
        0.8563109968617892,
        0.8331170726322774,
        0.8097320808678752,
        0.7862232690472977,
        0.7626571675463336,
        0.73909935252106,
        0.7156142140117235,
        0.6922647301452178,
        0.6691122482860319,
        0.646216273954566,
        0.6236342682978314,
        0.6014214548610264,
        0.5796306363693928,
        0.5583120221883137,
        0.5375130670859243,
        0.5172783218767638,
        0.4976492964773621,
        0.47866433585524215,
        0.4603585093018904,
        0.4427635134078274,
        0.42590758906430615,
        0.4098154527614755,
        0.39450824239721877,
        0.3800034777545769,
        0.3663150357487743,
        0.35345314048765475,
        0.3414243681319149,
        0.33023166648415037,
        0.31987438917856137,
        0.3103483442864069,
        0.30164585709617453,
        0.2937558467721103,
        0.28666391654048134,
        0.2803524569998977,
        0.27480076210043025,
        0.2699851572863236,
        0.26587913924902695,
        0.26245352669126465,
        0.2596766214591274,
        0.2575143793578908,
        0.2559305899286463,
        0.25488706442704057,
        0.25434383121263127,
        0.2542593377277601,
        0.25459065821853255,
        0.2552937063276621,
        0.2563234516696634,
        0.2576341394833051,
        0.25917951244442927
      ]
    },
    "lunar": {
      "phase": [
        0.0,
        0.005,
        0.01,
        0.015,
        0.02,
        0.025,
        0.03,
        0.035,
        0.04,
        0.045,
        0.05,
        0.055,
        0.06,
        0.065,
        0.07,
        0.075,
        0.08,
        0.085,
        0.09,
        0.095,
        0.1,
        0.105,
        0.11,
        0.115,
        0.12,
        0.125,
        0.13,
        0.135,
        0.14,
        0.145,
        0.15,
        0.155,
        0.16,
        0.165,
        0.17,
        0.17500000000000002,
        0.18,
        0.185,
        0.19,
        0.195,
        0.2,
        0.20500000000000002,
        0.21,
        0.215,
        0.22,
        0.225,
        0.23,
        0.23500000000000001,
        0.24,
        0.245,
        0.25,
        0.255,
        0.26,
        0.265,
        0.27,
        0.275,
        0.28,
        0.28500000000000003,
        0.29,
        0.295,
        0.3,
        0.305,
        0.31,
        0.315,
        0.32,
        0.325,
        0.33,
        0.335,
        0.34,
        0.34500000000000003,
        0.35000000000000003,
        0.355,
        0.36,
        0.365,
        0.37,
        0.375,
        0.38,
        0.385,
        0.39,
        0.395,
        0.4,
        0.405,
        0.41000000000000003,
        0.41500000000000004,
        0.42,
        0.425,
        0.43,
        0.435,
        0.44,
        0.445,
        0.45,
        0.455,
        0.46,
        0.465,
        0.47000000000000003,
        0.47500000000000003,
        0.48,
        0.485,
        0.49,
        0.495,
        0.5,
        0.505,
        0.51,
        0.515,
        0.52,
        0.525,
        0.53,
        0.535,
        0.54,
        0.545,
        0.55,
        0.555,
        0.56,
        0.5650000000000001,
        0.5700000000000001,
        0.5750000000000001,
        0.58,
        0.585,
        0.59,
        0.595,
        0.6,
        0.605,
        0.61,
        0.615,
        0.62,
        0.625,
        0.63,
        0.635,
        0.64,
        0.645,
        0.65,
        0.655,
        0.66,
        0.665,
        0.67,
        0.675,
        0.68,
        0.685,
        0.6900000000000001,
        0.6950000000000001,
        0.7000000000000001,
        0.705,
        0.71,
        0.715,
        0.72,
        0.725,
        0.73,
        0.735,
        0.74,
        0.745,
        0.75,
        0.755,
        0.76,
        0.765,
        0.77,
        0.775,
        0.78,
        0.785,
        0.79,
        0.795,
        0.8,
        0.805,
        0.81,
        0.8150000000000001,
        0.8200000000000001,
        0.8250000000000001,
        0.8300000000000001,
        0.835,
        0.84,
        0.845,
        0.85,
        0.855,
        0.86,
        0.865,
        0.87,
        0.875,
        0.88,
        0.885,
        0.89,
        0.895,
        0.9,
        0.905,
        0.91,
        0.915,
        0.92,
        0.925,
        0.93,
        0.935,
        0.9400000000000001,
        0.9450000000000001,
        0.9500000000000001,
        0.9550000000000001,
        0.96,
        0.965,
        0.97,
        0.975,
        0.98,
        0.985,
        0.99,
        0.995
      ],
      "value": [
        0.5316590577743403,
        0.5322204585951177,
        0.5321005209429794,
        0.5313427297847727,
        0.5299916444834452,
        0.5280926819193007,
        0.5256918976914997,
        0.5228357663023409,
        0.5195709612293913,
        0.5159441357894581,
        0.5120017056937063,
        0.5077896341849698,
        0.5033532206364851,
        0.49873689347596173,
        0.4939840082801549,
        0.4891366518629847,
        0.4842354531548606,
        0.4793194016423029,
        0.47442567410533687,
        0.46958947035558096,
        0.4648438586406104,
        0.46021963134018357,
        0.4557451715374523,
        0.4514463310034858,
        0.44734632008651876,
        0.4434656099484573,
        0.43982184754055687,
        0.436429783657996,
        0.4333012143595607,
        0.4304449359839827,
        0.42786671393891684,
        0.42556926538227335,
        0.42355225585888956,
        0.4218123098985538,
        0.4203430355243966,
        0.41913506256388733,
        0.41817609459832694,
        0.41745097433104233,
        0.4169417620996851,
        0.41662782720433394,
        0.4164859516707129,
        0.4164904460169676,
        0.4166132765433012,
        0.41682420361655415,
        0.41709093037669176,
        0.4173792612493469,
        0.4176532696081954,
        0.4178754738932003,
        0.4180070214557825,
        0.41800787936991524,
        0.41783703141911227,
        0.4174526804434082,
        0.41681245520781623,
        0.4158736209344839,
        0.4145932926249284,
        0.41292865028638537,
        0.410837155167494,
        0.4082767661033116,
        0.40520615506801383,
        0.4015849210356085,
        0.397373801254561,
        0.39253487905137546,
        0.3870317872908698,
        0.3808299066370633,
        0.3738965577782153,
        0.36620118680252167,
        0.35771554293720764,
        0.34841384789316,
        0.33827295608967567,
        0.3272725050692733,
        0.31539505545065366,
        0.30262621980866766,
        0.2889547799133979,
        0.2743727918059963,
        0.25887567823658664,
        0.24246230803914173,
        0.22513506206956344,
        0.20689988538608067,
        0.18776632540525828,
        0.16774755582222323,
        0.14686038613991828,
        0.12512525670905653,
        0.10256621923778664,
        0.07921090278760126,
        0.055090465329582367,
        0.030239530992354074,
        0.004696113189989415,
        -0.02149847612575817,
        -0.0482997307892368,
        -0.07566006796693359,
        -0.10352895851919097,
        -0.13185306971980926,
        -0.16057641982622461,
        -0.1896405439454351,
        -0.21898467059540966,
        -0.24854590831864698,
        -0.2782594416639228,
        -0.3080587358143157,
        -0.33787574910443374,
        -0.3676411526375478,
        -0.397284556184162,
        -0.4267347395176015,
        -0.45591988831948393,
        -0.48476783376864196,
        -0.5132062949112091,
        -0.5411631228972238,
        -0.5685665461603591,
        -0.5953454156121931,
        -0.6214294489209187,
        -0.6467494729464581,
        -0.6712376634096948,
        -0.6948277808828309,
        -0.7174554022008035,
        -0.7390581464100856,
        -0.7595758943910897,
        -0.7789510013136421,
        -0.7971285011115402,
        -0.8140563021919562,
        -0.8296853736282377,
        -0.8439699211204306,
        -0.8568675520463986,
        -0.8683394289676271,
        -0.8783504109975155,
        -0.8868691824859887,
        -0.8938683685224386,
        -0.8993246368091371,
        -0.9032187855091562,
        -0.9055358167262766,
        -0.9062649953291623,
        -0.9053998928880163,
        -0.9029384165487621,
        -0.898882822727345,
        -0.8932397155647421,
        -0.8860200301415174,
        -0.8772390005090069,
        -0.8669161126522611,
        -0.8550750425574677,
        -0.8417435796134987,
        -0.82695353563326,
        -0.810740639835452,
        -0.7931444201809364,
        -0.7742080715099725,
        -0.7539783109769044,
        -0.7325052213272696,
        -0.7098420826085532,
        -0.6860451929497751,
        -0.6611736790865576,
        -0.635289297347178,
        -0.6084562258511298,
        -0.5807408487048497,
        -0.5522115330092906,
        -0.5229383995209244,
        -0.4929930878313122,
        -0.46244851695061423,
        -0.4313786421971646,
        -0.3998582093084624,
        -0.36796250669863517,
        -0.335767116793459,
        -0.30334766737648655,
        -0.2707795838786086,
        -0.2381378435385729,
        -0.2054967323535141,
        -0.17292960572655133,
        -0.1405086537029395,
        -0.10830467166728053,
        -0.07638683735186452,
        -0.04482249498052743,
        -0.013676947343507051,
        0.016986743433224483,
        0.047107945695576386,
        0.07662863795513455,
        0.10549357781877569,
        0.13365045954666488,
        0.16105005967650693,
        0.18764637019933303,
        0.21339671882153774,
        0.23826187589903589,
        0.2622061476821994,
        0.2851974555643435,
        0.3072074010818103,
        0.32821131646992696,
        0.3481883006360147,
        0.36712124046806616,
        0.3849968174553623,
        0.40180549965502815,
        0.4175415190960196,
        0.4322028347691519,
        0.4457910814082148,
        0.4583115043228121,
        0.46977288059805167,
        0.4801874270294144,
        0.48957069521281393,
        0.4979414542598274,
        0.5053215616561497,
        0.511735822827271,
        0.517211840019075,
        0.521779851142285,
        0.5254725592682928,
        0.5283249534997814,
        0.5303741219724821
      ],
      "ci_lo": [
        0.054128555538777046,
        0.05463164085836708,
        0.05448986745137119,
        0.05374625156601087,
        0.052444471333186526,
        0.05062865933333366,
        0.04834319767709827,
        0.04563251642794797,
        0.042540896153530516,
        0.039112275346118275,
        0.03539006340096168,
        0.03141695978518255,
        0.0272347799694041,
        0.022884288630304894,
        0.018405040565524666,
        0.013835229693803297,
        0.009211546444089891,
        0.004569043768867798,
        -5.898804948933911e-05,
        -0.004641137693442543,
        -0.009147980158187241,
        -0.01355217515645607,
        -0.017828556627967562,
        -0.0219542134365866,
        -0.02590856136405656,
        -0.029673406524931223,
        -0.033233000332907936,
        -0.03657408614441271,
        -0.03968593769162171,
        -0.0425603893952099,
        -0.04519185861835412,
        -0.04757735988963918,
        -0.049716511085449666,
        -0.051611531524280385,
        -0.053267231888342925,
        -0.05469099585395687,
        -0.055892753283482144,
        -0.05688494480970219,
        -0.05768247763001244,
        -0.05830267232359582,
        -0.05876520051062872,
        -0.05909201318873508,
        -0.05930725960826827,
        -0.05943719658404939,
        -0.059510088186149446,
        -0.059556095805069265,
        -0.05960715864602578,
        -0.059696864771579594,
        -0.05986031288011634,
        -0.060133965078261076,
        -0.0605554909767822,
        -0.061163603510636766,
        -0.06199788695336855,
        -0.06309861766308766,
        -0.06450657816092242,
        -0.06626286520246966,
        -0.06840869255791798,
        -0.07098518926683756,
        -0.07403319417896065,
        -0.07759304763256131,
        -0.0817043811573318,
        -0.08640590611908283,
        -0.09173520224933701,
        -0.09772850702416996,
        -0.10442050687367505,
        -0.11184413121640241,
        -0.12003035032220105,
        -0.12900797801216246,
        -0.13880348020587518,
        -0.1494407903238671,
        -0.16094113254679615,
        -0.17332285392239555,
        -0.18660126629604146,
        -0.20078849902066404,
        -0.2158933633760724,
        -0.23192122959603648,
        -0.24887391736316186,
        -0.2667496005860589,
        -0.28554272722014307,
        -0.3052439548321204,
        -0.32584010253856366,
        -0.347314119870871,
        -0.3696450730323811,
        -0.3928081489188767,
        -0.41677467717167804,
        -0.44151217042390667,
        -0.46698438278633053,
        -0.49315138650090623,
        -0.5199696665691401,
        -0.5473922330405334,
        -0.57536875052533,
        -0.6038456843775094,
        -0.6327664628801939,
        -0.6620716546581822,
        -0.6916991604426822,
        -0.721584418222966,
        -0.7516606207396486,
        -0.7818589442055314,
        -0.8121087870829613,
        -0.842338017701726,
        -0.8724732294685812,
        -0.902440002398355,
        -0.9321631696865905,
        -0.9615670880442426,
        -0.9905759105251108,
        -1.019113860595499,
        -1.0471055062220571,
        -1.074476032786716,
        -1.1011515136761416,
        -1.1270591774360743,
        -1.1521276704274515,
        -1.176287313970346,
        -1.1994703550128498,
        -1.2216112094142695,
        -1.2426466969849266,
        -1.2625162674779031,
        -1.281162216780878,
        -1.2985298926084778,
        -1.3145678890470114,
        -1.3292282293540085,
        -1.342466536464411,
        -1.354242190703592,
        -1.3645184742545462,
        -1.3732627019726065,
        -1.3804463381859469,
        -1.3860450991639897,
        -1.3900390409787138,
        -1.3924126325258532,
        -1.3931548135141933,
        -1.392259037271736,
        -1.3897232982574979,
        -1.3855501442073295,
        -1.3797466728814456,
        -1.3723245134205617,
        -1.363299792356715,
        -1.3526930843641851,
        -1.3405293478755764,
        -1.3268378457281784,
        -1.3116520510463572,
        -1.2950095386070906,
        -1.2769518619779054,
        -1.2575244167596054,
        -1.2367762903103032,
        -1.214760098372551,
        -1.1915318090717624,
        -1.167150554801767,
        -1.1416784325621114,
        -1.11518029336168,
        -1.087723521354146,
        -1.0593778034226153,
        -1.0302148899832715,
        -1.0003083478307022,
        -0.9697333059003388,
        -0.9385661948757685,
        -0.9068844816199404,
        -0.8747663994588164,
        -0.842290675393194,
        -0.8095362553582545,
        -0.7765820286901413,
        -0.7435065529934686,
        -0.7103877806321964,
        -0.6773027880877052,
        -0.64432750944126,
        -0.6115364752423776,
        -0.5790025580191492,
        -0.5467967256705517,
        -0.5149878039537652,
        -0.4836422492411497,
        -0.452823932671742,
        -0.42259393676117896,
        -0.3930103654621456,
        -0.36412816858566266,
        -0.335998981402672,
        -0.30867098014660993,
        -0.2821887540324912,
        -0.2565931942978783,
        -0.23192140065774222,
        -0.20820660545017655,
        -0.18547811563497757,
        -0.16376127269373936,
        -0.1430774303698123,
        -0.12344395008053755,
        -0.10487421373360789,
        -0.08737765358515925,
        -0.07095979868981628,
        -0.05562233741287814,
        -0.041363195402251696,
        -0.028176628352691024,
        -0.016053328837186354,
        -0.004980546429696864,
        0.005057779700544052,
        0.014080876580627621,
        0.022110982500838205,
        0.029173182272703435,
        0.03529523361569642,
        0.0405073856270482,
        0.04484219030177744,
        0.04833430807857397,
        0.05102030839172694,
        0.052938466209853596
      ],
      "ci_hi": [
        1.0091895600099035,
        1.0098092763318682,
        1.0097111744345877,
        1.0089392080035346,
        1.0075388176337037,
        1.0055567045052678,
        1.0030405977059011,
        1.0000390161767339,
        0.996601026305252,
        0.9927759962327979,
        0.988613347986451,
        0.9841623085847571,
        0.9794716613035661,
        0.9745894983216186,
        0.969562975994785,
        0.9644380740321661,
        0.9592593598656314,
        0.954069759515738,
        0.9489103362601631,
        0.9438200784046045,
        0.9388356974394081,
        0.9339914378368233,
        0.9293188997028722,
        0.9248468754435581,
        0.9206012015370941,
        0.9166046264218458,
        0.9128766954140217,
        0.9094336534604047,
        0.9062883664107431,
        0.9034502613631753,
        0.9009252864961879,
        0.8987158906541859,
        0.8968210228032287,
        0.895236151321388,
        0.8939533029371362,
        0.8929611209817315,
        0.892244942480136,
        0.8917868934717869,
        0.8915660018293826,
        0.8915583267322638,
        0.8917371038520545,
        0.8920729052226704,
        0.8925338126948708,
        0.8930856038171577,
        0.893691948939533,
        0.894314618303763,
        0.8949136978624166,
        0.8954478125579801,
        0.8958743557916813,
        0.8961497238180915,
        0.8962295538150067,
        0.8960689643974532,
        0.895622797369001,
        0.8948458595320554,
        0.8936931634107792,
        0.8921201657752404,
        0.8900830028929059,
        0.8875387214734607,
        0.8844455043149884,
        0.8807628897037783,
        0.8764519836664538,
        0.8714756642218338,
        0.8657987768310766,
        0.8593883202982966,
        0.8522136224301056,
        0.8442465048214458,
        0.8354614361966164,
        0.8258356737984824,
        0.8153493923852265,
        0.8039858004624136,
        0.7917312434481034,
        0.7785752935397309,
        0.7645108261228373,
        0.7495340826326566,
        0.7336447198492457,
        0.71684584567432,
        0.6991440415022887,
        0.6805493713582202,
        0.6610753780306596,
        0.6407390664765669,
        0.6195608748184002,
        0.5975646332889841,
        0.5747775115079543,
        0.5512299544940792,
        0.5269556078308428,
        0.5019912324086148,
        0.47637660916630936,
        0.4501544342493899,
        0.4233702049906666,
        0.3960720971066663,
        0.3683108334869481,
        0.3401395449378909,
        0.31161362322774466,
        0.2827905667673119,
        0.2537298192518629,
        0.22449260158567208,
        0.19514173741180296,
        0.16574147257689997,
        0.13635728887409376,
        0.10705571242663037,
        0.07790411710025724,
        0.04897052336315194,
        0.02032339304762265,
        -0.00796857949304125,
        -0.03583667929730733,
        -0.06321238519894856,
        -0.09002758609866102,
        -0.1162147984376703,
        -0.14170738416569578,
        -0.16643976845684183,
        -0.19034765639193812,
        -0.21336824779531588,
        -0.2354404493887572,
        -0.25650508340590167,
        -0.27650509179725286,
        -0.2953857351493811,
        -0.3130947854422023,
        -0.3295827117754347,
        -0.34480285820946405,
        -0.3587116128868526,
        -0.3712685676283862,
        -0.3824366672316622,
        -0.3921823477404849,
        -0.4004756629993708,
        -0.40729039885893037,
        -0.41260417445428466,
        -0.41639853003959865,
        -0.41865900092669994,
        -0.4193751771441311,
        -0.4185407485042965,
        -0.41615353484002626,
        -0.4122155012473604,
        -0.4067327582480388,
        -0.3997155468624731,
        -0.3911782086612988,
        -0.38113914094033713,
        -0.36962073723935895,
        -0.356649313498819,
        -0.34225502022016285,
        -0.32647174106381344,
        -0.3093369783839674,
        -0.2908917262603397,
        -0.2711803316435055,
        -0.2502503442819881,
        -0.2281523561453439,
        -0.20493983109778302,
        -0.18066892561100373,
        -0.15539830133267607,
        -0.12918893034811346,
        -0.10210389398708397,
        -0.07420817603530983,
        -0.0455684512111465,
        -0.016252869762285627,
        0.013669160974540073,
        0.04412719722561115,
        0.07504998084189157,
        0.10636566199592373,
        0.13800202177133647,
        0.16988669393716815,
        0.2019473852362514,
        0.23411209355505067,
        0.26630932338067703,
        0.29846829798815744,
        0.3305191678364986,
        0.3623932146845882,
        0.3940230509668226,
        0.42534281399271034,
        0.4562883545541356,
        0.48679741953819095,
        0.5168098281523318,
        0.5462676413724147,
        0.5751153242232141,
        0.6032999004960018,
        0.6307710994996238,
        0.6574814944311572,
        0.6833866319409538,
        0.708445152455814,
        0.7326189008145754,
        0.7558730267636646,
        0.7781760748573601,
        0.7995000633096663,
        0.8198205513525669,
        0.8391166946697401,
        0.8573712884958838,
        0.8745707979998726,
        0.8907053756049174,
        0.9057688649405555,
        0.9197587911691205,
        0.9326763374828105,
        0.9445263076258001,
        0.9553170743582848,
        0.9650605138450002,
        0.9737719260188166,
        0.981469941039596,
        0.9881764120388457,
        0.993916294411102,
        0.9987175119827925,
        1.0026108104580116,
        1.0056295986078359,
        1.0078097777351107
      ]
    }
  },
  "covariates": [
    "diel",
    "lunar"
  ],
  "n_harmonics": 2,
  "reference_station": "haro_strait",
  "confidence": 0.0,
  "fitted_at": "2026-06-22T14:42:39.861302+00:00",
  "bin_hours": 1.0,
  "acoustic_span": [
    "2020-09-28T04:15:03.495901+00:00",
    "2021-05-09T11:00:21.174203+00:00"
  ],
  "detections_unreviewed_candidates": true,
  "season_extrapolated": true,
  "covariates_excluded": {
    "tide": "dropped: phase coverage 0.42 < 0.90 (kernel would be extrapolated)",
    "season": "dropped: phase coverage 0.75 < 0.90 (kernel would be extrapolated)"
  },
  "repr_id": "repr_46c561feb18ef281",
  "run_id": "run_fb8f0acab5bd91ee",
  "dataset_snapshot_id": "snap_7b32a8e97d9cd5d7"
}