{
  "version": "repr_96cc7ce94f4a5ed6",
  "model": "negbin_glm_lnp",
  "family": "negbin",
  "dispersion_alpha": 46.07015982447912,
  "pearson_dispersion": 1.5296694010066538,
  "intercept": -2.234119359249604,
  "station_effects": {
    "haro_strait": 0.0
  },
  "kernels": {
    "diel": {
      "cos": [
        -0.4558435651707052,
        0.06638175589551817
      ],
      "sin": [
        -0.4081369275404189,
        0.17316101329236508
      ]
    },
    "tide": {
      "cos": [
        -0.26541116192238956,
        0.16769990787401112
      ],
      "sin": [
        0.5506689752921909,
        -0.32076274619492684
      ]
    },
    "lunar": {
      "cos": [
        0.4654495688984576,
        -0.07010663021462521
      ],
      "sin": [
        0.43694888519929626,
        -0.16864603816414864
      ]
    }
  },
  "kernel_curves": {
    "diel": {
      "phase": [
        0.0,
        0.005,
        0.01,
        0.015,
        0.02,
        0.025,
        0.03,
        0.035,
        0.04,
        0.045,
        0.05,
        0.055,
        0.06,
        0.065,
        0.07,
        0.075,
        0.08,
        0.085,
        0.09,
        0.095,
        0.1,
        0.105,
        0.11,
        0.115,
        0.12,
        0.125,
        0.13,
        0.135,
        0.14,
        0.145,
        0.15,
        0.155,
        0.16,
        0.165,
        0.17,
        0.17500000000000002,
        0.18,
        0.185,
        0.19,
        0.195,
        0.2,
        0.20500000000000002,
        0.21,
        0.215,
        0.22,
        0.225,
        0.23,
        0.23500000000000001,
        0.24,
        0.245,
        0.25,
        0.255,
        0.26,
        0.265,
        0.27,
        0.275,
        0.28,
        0.28500000000000003,
        0.29,
        0.295,
        0.3,
        0.305,
        0.31,
        0.315,
        0.32,
        0.325,
        0.33,
        0.335,
        0.34,
        0.34500000000000003,
        0.35000000000000003,
        0.355,
        0.36,
        0.365,
        0.37,
        0.375,
        0.38,
        0.385,
        0.39,
        0.395,
        0.4,
        0.405,
        0.41000000000000003,
        0.41500000000000004,
        0.42,
        0.425,
        0.43,
        0.435,
        0.44,
        0.445,
        0.45,
        0.455,
        0.46,
        0.465,
        0.47000000000000003,
        0.47500000000000003,
        0.48,
        0.485,
        0.49,
        0.495,
        0.5,
        0.505,
        0.51,
        0.515,
        0.52,
        0.525,
        0.53,
        0.535,
        0.54,
        0.545,
        0.55,
        0.555,
        0.56,
        0.5650000000000001,
        0.5700000000000001,
        0.5750000000000001,
        0.58,
        0.585,
        0.59,
        0.595,
        0.6,
        0.605,
        0.61,
        0.615,
        0.62,
        0.625,
        0.63,
        0.635,
        0.64,
        0.645,
        0.65,
        0.655,
        0.66,
        0.665,
        0.67,
        0.675,
        0.68,
        0.685,
        0.6900000000000001,
        0.6950000000000001,
        0.7000000000000001,
        0.705,
        0.71,
        0.715,
        0.72,
        0.725,
        0.73,
        0.735,
        0.74,
        0.745,
        0.75,
        0.755,
        0.76,
        0.765,
        0.77,
        0.775,
        0.78,
        0.785,
        0.79,
        0.795,
        0.8,
        0.805,
        0.81,
        0.8150000000000001,
        0.8200000000000001,
        0.8250000000000001,
        0.8300000000000001,
        0.835,
        0.84,
        0.845,
        0.85,
        0.855,
        0.86,
        0.865,
        0.87,
        0.875,
        0.88,
        0.885,
        0.89,
        0.895,
        0.9,
        0.905,
        0.91,
        0.915,
        0.92,
        0.925,
        0.93,
        0.935,
        0.9400000000000001,
        0.9450000000000001,
        0.9500000000000001,
        0.9550000000000001,
        0.96,
        0.965,
        0.97,
        0.975,
        0.98,
        0.985,
        0.99,
        0.995
      ],
      "value": [
        -0.38946180927518703,
        -0.39131488793990526,
        -0.39301004609554296,
        -0.39457650234397795,
        -0.3960425795475214,
        -0.3974355589993005,
        -0.3987815401230941,
        -0.4001053062885279,
        -0.4014301973019676,
        -0.4027779891056411,
        -0.4041687811875829,
        -0.40562089217304154,
        -0.40715076403415906,
        -0.40877287531915185,
        -0.41049966376502944,
        -0.41234145861924765,
        -0.4143064229557385,
        -0.41640050622966573,
        -0.4186274072731826,
        -0.42098854789157436,
        -0.42348305717564433,
        -0.42610776660219674,
        -0.42885721595018045,
        -0.4317236700156496,
        -0.43469714606434123,
        -0.43776545191656524,
        -0.4409142345153972,
        -0.44412703878605025,
        -0.447385376551953,
        -0.45066880523162683,
        -0.45395501600012783,
        -0.4572199310597297,
        -0.46043780962686587,
        -0.4635813622062195,
        -0.46662187268846345,
        -0.46952932777556855,
        -0.47227255320701755,
        -0.47481935623175653,
        -0.47713667374442464,
        -0.47919072548042924,
        -0.4809471716428605,
        -0.48237127431517346,
        -0.48342806199706473,
        -0.48408249658711566,
        -0.48429964212461146,
        -0.4840448345945251,
        -0.4832838520940165,
        -0.4819830846559497,
        -0.4801097030249028,
        -0.4776318256839322,
        -0.4745186834359371,
        -0.4707407808518479,
        -0.466270053908984,
        -0.46108002315676205,
        -0.4551459417634265,
        -0.44844493781655714,
        -0.440956150271706,
        -0.43266085796755493,
        -0.42354260115235476,
        -0.41358729499501923,
        -0.4027833345849832,
        -0.3911216909576725,
        -0.3785959977170507,
        -0.36520262786306146,
        -0.3509407604697412,
        -0.3358124368991774,
        -0.3198226062771785,
        -0.3029791599983623,
        -0.28529295507114893,
        -0.26677782615676215,
        -0.2474505862005521,
        -0.22733101559864788,
        -0.2064418398878998,
        -0.18480869599213917,
        -0.1624600871027606,
        -0.1394273263163804,
        -0.11574446919660508,
        -0.0914482354706643,
        -0.06657792011456934,
        -0.04117529412243362,
        -0.015284495296466721,
        0.011048090566278868,
        0.0377739576761458,
        0.06484261699128105,
        0.09220174121052069,
        0.11979731750010067,
        0.14757380740450884,
        0.17547431336295974,
        0.20344075122628602,
        0.23141402814476542,
        0.2593342251754981,
        0.28714078393862075,
        0.3147726966348603,
        0.3421686987228636,
        0.3692674635433426,
        0.3960077981684961,
        0.42232883974933977,
        0.4481702516306218,
        0.4734724185028467,
        0.4981766398636423,
        0.5222253210662233,
        0.5455621612410613,
        0.5681323373879753,
        0.5898826839497197,
        0.6107618671946821,
        0.6307205537554479,
        0.6497115726917023,
        0.6676900704700757,
        0.6846136582800807,
        0.700442551134056,
        0.7151396982299764,
        0.7286709040889452,
        0.7410049400140528,
        0.7521136454539075,
        0.7619720188924025,
        0.7705582979259958,
        0.7778540282308246,
        0.7838441211641713,
        0.788516899787981,
        0.7918641331461445,
        0.7938810586719243,
        0.7945663926470311,
        0.7939223286793046,
        0.7919545242115069,
        0.7886720751192438,
        0.7840874785012955,
        0.7782165838105091,
        0.7710785325176612,
        0.7626956865442335,
        0.7530935457426159,
        0.7423006547437498,
        0.7303484995324557,
        0.717271394149507,
        0.7031063579567689,
        0.6878929839372552,
        0.6716732985356586,
        0.6544916135766112,
        0.6363943708275452,
        0.6174299798004018,
        0.5976486494115066,
        0.5771022141415597,
        0.5558439553578125,
        0.5339284184780433,
        0.5114112266708218,
        0.48834889179871316,
        0.4647986233204855,
        0.44081813587497687,
        0.4164654562730862,
        0.3917987306252847,
        0.36687603233017585,
        0.3417551716449009,
        0.31649350755069205,
        0.29114776261655206,
        0.26577384155101996,
        0.24042665411626596,
        0.21515994306040986,
        0.19002611770309816,
        0.16507609378600696,
        0.14035914017424156,
        0.11592273296660437,
        0.09181241754259005,
        0.06807167904176854,
        0.044741821737156864,
        0.021861857728305678,
        -0.0005315946576317787,
        -0.022404402407570606,
        -0.04372499899790794,
        -0.06446445493614306,
        -0.08459653744364892,
        -0.10409775909780797,
        -0.12294741529572775,
        -0.14112761044618655,
        -0.15862327284122402,
        -0.1754221582037185,
        -0.19151484195214175,
        -0.20689470026834975,
        -0.2215578800985068,
        -0.23550325826094648,
        -0.24873238987771154,
        -0.2612494463885554,
        -0.2730611434471554,
        -0.28417665903900435,
        -0.2946075421987872,
        -0.3043676127418302,
        -0.3134728524593127,
        -0.32194128826019075,
        -0.32979286777410316,
        -0.33704932795874887,
        -0.34373405728226347,
        -0.34987195207584265,
        -0.3554892676741972,
        -0.3606134649812595,
        -0.3652730531158386,
        -0.3694974288065689,
        -0.37331671321744436,
        -0.3767615868944566,
        -0.37986312353030005,
        -0.3826526232477579,
        -0.38516144610322883,
        -0.3874208465098859
      ],
      "ci_lo": [
        -0.9034034822232494,
        -0.9053746192772583,
        -0.9071759111663986,
        -0.908837410278069,
        -0.9103883042497417,
        -0.9118567614709371,
        -0.9132697819320801,
        -0.9146530540864075,
        -0.9160308183672202,
        -0.917425737975863,
        -0.9188587775259548,
        -0.9203490900966781,
        -0.9219139132124626,
        -0.9235684742283223,
        -0.9253259055595526,
        -0.9271971701516476,
        -0.929190997541333,
        -0.9313138308127596,
        -0.9335697847043402,
        -0.9359606150717458,
        -0.9384856998613962,
        -0.9411420316966976,
        -0.9439242221265495,
        -0.9468245175325727,
        -0.9498328266383538,
        -0.9529367595111059,
        -0.9561216778937476,
        -0.9593707566538301,
        -0.9626650560852595,
        -0.9659836047496375,
        -0.9693034924965525,
        -0.9725999732565083,
        -0.9758465771566626,
        -0.9790152314682752,
        -0.9820763898560536,
        -0.9849991693634645,
        -0.9877514945348136,
        -0.9903002480445225,
        -0.9926114271767226,
        -0.9946503054740665,
        -0.9963815988536431,
        -0.9977696354700735,
        -0.9987785285913302,
        -0.9993723517415304,
        -0.9995153153569429,
        -0.9991719441966622,
        -0.9983072547478475,
        -0.9968869318670213,
        -0.9948775039036464,
        -0.99224651555999,
        -0.9889626977520338,
        -0.9849961337498871,
        -0.9803184208926491,
        -0.9749028271919131,
        -0.9687244421599813,
        -0.9617603212232719,
        -0.95398962310824,
        -0.9453937396162877,
        -0.9359564172354837,
        -0.9256638700703276,
        -0.9145048836061447,
        -0.9024709088618525,
        -0.8895561465236481,
        -0.875757620692494,
        -0.8610752419199637,
        -0.8455118592498984,
        -0.8290733010272422,
        -0.8117684042802453,
        -0.7936090325276948,
        -0.7746100819088843,
        -0.7547894755803914,
        -0.7341681463702628,
        -0.7127700077267325,
        -0.6906219130448978,
        -0.6677536035006902,
        -0.6441976445668283,
        -0.6199893514299972,
        -0.5951667035721443,
        -0.5697702488212734,
        -0.5438429972183314,
        -0.5174303050865257,
        -0.4905797497275024,
        -0.4633409952051616,
        -0.4357656497122484,
        -0.407907115047214,
        -0.3798204287589254,
        -0.3515620995446651,
        -0.3231899365122084,
        -0.2947628729397039,
        -0.2663407851873517,
        -0.23798430743254612,
        -0.2097546429150779,
        -0.18171337239120233,
        -0.1539222605047813,
        -0.126443060790358,
        -0.09933732002683593,
        -0.0726661826615097,
        -0.04649019602245852,
        -0.020869117032876416,
        0.00413827886623469,
        0.028474385888366427,
        0.0520829524845387,
        0.07490926166769052,
        0.09690030642638625,
        0.11800495959550183,
        0.13817413757350883,
        0.15736095730014593,
        0.17552088593446463,
        0.1926118827014603,
        0.20859453240552733,
        0.22343217014079259,
        0.23709099676177753,
        0.24954018471275496,
        0.2607519738504167,
        0.27070175693196397,
        0.27936815447928104,
        0.28673307876936666,
        0.2927817867414743,
        0.2975029216523314,
        0.30088854335221066,
        0.302934147096346,
        0.3036386708480619,
        0.3030044910718764,
        0.30103740705655957,
        0.2977466138495368,
        0.29314466392495797,
        0.2872474177480577,
        0.2800739834379375,
        0.271646645769497,
        0.2619907847927461,
        0.2511347843840332,
        0.23910993107870054,
        0.2259503035681783,
        0.2116926532764889,
        0.19637627646139966,
        0.18004287831400123,
        0.1627364295571655,
        0.1445030160681232,
        0.1253906820732188,
        0.10544926748370292,
        0.08473023996018797,
        0.06328652231004855,
        0.04117231583664582,
        0.018442920271707353,
        -0.0048454490674565975,
        -0.02863584624597626,
        -0.05287078114866428,
        -0.07749240672641095,
        -0.10244270638976716,
        -0.12766368088789465,
        -0.15309753401330994,
        -0.17868685647710864,
        -0.20437480730572127,
        -0.23010529211860958,
        -0.25582313765671966,
        -0.2814742619439451,
        -0.30700583947828153,
        -0.3323664608658219,
        -0.3575062863291825,
        -0.382377192542409,
        -0.40693291226679856,
        -0.4311291662864736,
        -0.45492378716881215,
        -0.4782768344030464,
        -0.5011507005003458,
        -0.5235102076705388,
        -0.5453226947241584,
        -0.5665580938836702,
        -0.5871889972244856,
        -0.6071907125044875,
        -0.6265413081803215,
        -0.6452216474493375,
        -0.6632154111977722,
        -0.6805091097783462,
        -0.6970920835837288,
        -0.7129564924261477,
        -0.72809729377757,
        -0.7425122099692136,
        -0.7562016844934012,
        -0.7691688275948211,
        -0.7814193513818306,
        -0.7929614947313961,
        -0.8038059383033744,
        -0.8139657100209167,
        -0.823456081413646,
        -0.8322944552587064,
        -0.8405002449916745,
        -0.8480947463944579,
        -0.8551010021005364,
        -0.8615436594890846,
        -0.8674488225684949,
        -0.8728438984764797,
        -0.8777574392481357,
        -0.8822189795250024,
        -0.8862588708971204,
        -0.8899081135863249,
        -0.8931981861923782,
        -0.8961608742340073,
        -0.898828098224381,
        -0.901231742024994
      ],
      "ci_hi": [
        0.12447986367287533,
        0.12274484339744779,
        0.12115581897531275,
        0.11968440559011312,
        0.11830314515469886,
        0.11698564347233609,
        0.11570670168589192,
        0.11444244150935168,
        0.11317042376328501,
        0.1118697597645808,
        0.11052121515078894,
        0.10910730575059502,
        0.1076123851441445,
        0.10602272359001863,
        0.10432657802949374,
        0.1025142529131523,
        0.10057815162985606,
        0.09851281835342818,
        0.09631497015797497,
        0.09398351928859705,
        0.09151958551010758,
        0.08892649849230416,
        0.08620979022618858,
        0.08337717750127349,
        0.08043853450967137,
        0.07740585567797542,
        0.07429320886295315,
        0.07111667908172964,
        0.06789430298135357,
        0.0646459942863839,
        0.06139346049629674,
        0.05816011113704889,
        0.05497095790293083,
        0.05185250705583622,
        0.04883264447912672,
        0.045940513812327444,
        0.04320638812077848,
        0.04066153558100949,
        0.03833807968787323,
        0.036268854513208104,
        0.03448725556792209,
        0.03302708683972655,
        0.03192240459720069,
        0.03120735856729906,
        0.030916031107720066,
        0.03108227500761207,
        0.03173955055981459,
        0.03292076255512183,
        0.03465809785384072,
        0.03698286419212554,
        0.03992533088015954,
        0.04351457204619136,
        0.047778313074681056,
        0.05274278087838896,
        0.05843255863312835,
        0.06487044559015764,
        0.07207732256482802,
        0.08007202368117783,
        0.08887121493077421,
        0.09848928008028912,
        0.1089382144361783,
        0.12022752694650746,
        0.13236415108954674,
        0.14535236496637105,
        0.15919372098048123,
        0.17388698545154357,
        0.18942808847288517,
        0.20581008428352082,
        0.2230231223853969,
        0.24105442959535994,
        0.2598883031792873,
        0.2795061151729671,
        0.29988632795093295,
        0.32100452106061955,
        0.342833429295169,
        0.3653429919340674,
        0.38850041303678706,
        0.41227023263081575,
        0.43661440859213474,
        0.4614924089734642,
        0.48686131449359227,
        0.5126759308600601,
        0.5388889105574531,
        0.5654508836948104,
        0.5923105974682554,
        0.6194150637591268,
        0.6467097143536827,
        0.6741385632381278,
        0.7016443753922759,
        0.7291688414768825,
        0.7566527577835422,
        0.7840362107923193,
        0.8112587656609229,
        0.8382596579505085,
        0.8649779878770432,
        0.8913529163638281,
        0.9173238621601892,
        0.9428306992837021,
        0.9678139540385698,
        0.99221500086105,
        1.0159762562440802,
        1.0390413699975838,
        1.06135541310826,
        1.082865061473053,
        1.1035187747938622,
        1.123266969937387,
        1.1420621880832587,
        1.1598592550056868,
        1.1766154338587012,
        1.1922905698625845,
        1.20684722631916,
        1.2202508114161128,
        1.2324696953153507,
        1.2434753170573982,
        1.2532422808528412,
        1.2617484413727107,
        1.2689749776922825,
        1.2749064555868683,
        1.2795308779236305,
        1.2828397229400783,
        1.2848279702475025,
        1.2854941144460004,
        1.2848401662867328,
        1.2828716413664543,
        1.2795975363889507,
        1.275030293077633,
        1.2691857498729604,
        1.262083081597385,
        1.25374472731897,
        1.2441963066924857,
        1.2334665251034664,
        1.2215870679862109,
        1.2085924847308358,
        1.194520062637049,
        1.1794096914131107,
        1.1633037187573159,
        1.1462467975960569,
        1.1282857255869674,
        1.1094692775275847,
        1.0898480313393104,
        1.0694741883229315,
        1.0484013884055765,
        1.0266845211194409,
        1.0043795330699363,
        0.981543232664883,
        0.9582330928869472,
        0.934507052898618,
        0.9104233192725832,
        0.8860401676403366,
        0.8614157455482463,
        0.8366078773031117,
        0.8116738715784928,
        0.7866703325388253,
        0.7616529752206496,
        0.7366764458892516,
        0.7117941480647648,
        0.6870580748844779,
        0.6625186484378358,
        0.6382245666776656,
        0.6142226584756177,
        0.5905577473519786,
        0.5672725243700106,
        0.5444074306431259,
        0.5220005498596578,
        0.5000875111850823,
        0.47870140285539764,
        0.4578726967283425,
        0.43762918401138406,
        0.41799592233718774,
        0.39899519430887165,
        0.38064647758886605,
        0.36296642655696437,
        0.34596886551532413,
        0.32966479337090915,
        0.31406239967944527,
        0.2991670918894481,
        0.2849815335805565,
        0.2715056934473206,
        0.25873690473797817,
        0.24666993481771027,
        0.23529706448751986,
        0.2246081766533874,
        0.21459085390580007,
        0.20523048453725623,
        0.19651037649502062,
        0.18841187873832488,
        0.18091450944346826,
        0.17399609047696019,
        0.16763288753600947,
        0.16179975533739932,
        0.15647028722010048,
        0.15161696851396061,
        0.1472113330164585,
        0.14322412191186462,
        0.13962544446223174,
        0.13638493979741173,
        0.13347193913177813,
        0.1308556277384914,
        0.12850520601792342,
        0.12639004900522216
      ]
    },
    "tide": {
      "phase": [
        0.0,
        0.005,
        0.01,
        0.015,
        0.02,
        0.025,
        0.03,
        0.035,
        0.04,
        0.045,
        0.05,
        0.055,
        0.06,
        0.065,
        0.07,
        0.075,
        0.08,
        0.085,
        0.09,
        0.095,
        0.1,
        0.105,
        0.11,
        0.115,
        0.12,
        0.125,
        0.13,
        0.135,
        0.14,
        0.145,
        0.15,
        0.155,
        0.16,
        0.165,
        0.17,
        0.17500000000000002,
        0.18,
        0.185,
        0.19,
        0.195,
        0.2,
        0.20500000000000002,
        0.21,
        0.215,
        0.22,
        0.225,
        0.23,
        0.23500000000000001,
        0.24,
        0.245,
        0.25,
        0.255,
        0.26,
        0.265,
        0.27,
        0.275,
        0.28,
        0.28500000000000003,
        0.29,
        0.295,
        0.3,
        0.305,
        0.31,
        0.315,
        0.32,
        0.325,
        0.33,
        0.335,
        0.34,
        0.34500000000000003,
        0.35000000000000003,
        0.355,
        0.36,
        0.365,
        0.37,
        0.375,
        0.38,
        0.385,
        0.39,
        0.395,
        0.4,
        0.405,
        0.41000000000000003,
        0.41500000000000004,
        0.42,
        0.425,
        0.43,
        0.435,
        0.44,
        0.445,
        0.45,
        0.455,
        0.46,
        0.465,
        0.47000000000000003,
        0.47500000000000003,
        0.48,
        0.485,
        0.49,
        0.495,
        0.5,
        0.505,
        0.51,
        0.515,
        0.52,
        0.525,
        0.53,
        0.535,
        0.54,
        0.545,
        0.55,
        0.555,
        0.56,
        0.5650000000000001,
        0.5700000000000001,
        0.5750000000000001,
        0.58,
        0.585,
        0.59,
        0.595,
        0.6,
        0.605,
        0.61,
        0.615,
        0.62,
        0.625,
        0.63,
        0.635,
        0.64,
        0.645,
        0.65,
        0.655,
        0.66,
        0.665,
        0.67,
        0.675,
        0.68,
        0.685,
        0.6900000000000001,
        0.6950000000000001,
        0.7000000000000001,
        0.705,
        0.71,
        0.715,
        0.72,
        0.725,
        0.73,
        0.735,
        0.74,
        0.745,
        0.75,
        0.755,
        0.76,
        0.765,
        0.77,
        0.775,
        0.78,
        0.785,
        0.79,
        0.795,
        0.8,
        0.805,
        0.81,
        0.8150000000000001,
        0.8200000000000001,
        0.8250000000000001,
        0.8300000000000001,
        0.835,
        0.84,
        0.845,
        0.85,
        0.855,
        0.86,
        0.865,
        0.87,
        0.875,
        0.88,
        0.885,
        0.89,
        0.895,
        0.9,
        0.905,
        0.91,
        0.915,
        0.92,
        0.925,
        0.93,
        0.935,
        0.9400000000000001,
        0.9450000000000001,
        0.9500000000000001,
        0.9550000000000001,
        0.96,
        0.965,
        0.97,
        0.975,
        0.98,
        0.985,
        0.99,
        0.995
      ],
      "value": [
        -0.09771125404837844,
        -0.10075513608702394,
        -0.10413533075116382,
        -0.10778619292857336,
        -0.11164033660756319,
        -0.11562895310140152,
        -0.11968213549966096,
        -0.12372920801382653,
        -0.1276990588646354,
        -0.13152047534414021,
        -0.13512247967645527,
        -0.13843466429760098,
        -0.1413875251768099,
        -0.14391279180909977,
        -0.14594375252182426,
        -0.1474155737562222,
        -0.14826561200864136,
        -0.14843371714501113,
        -0.14786252583616483,
        -0.1464977439006446,
        -0.14428841638548712,
        -0.14118718426403032,
        -0.1371505266828012,
        -0.1321389877468298,
        -0.12611738689406415,
        -0.11905501197469376,
        -0.11092579421985668,
        -0.10170846435615599,
        -0.09138668919733395,
        -0.07994918812208246,
        -0.06738982892696582,
        -0.053707702625511944,
        -0.038907176848335445,
        -0.02299792758439201,
        -0.005994949089756563,
        0.012081458122641942,
        0.031205721211478243,
        0.05134705076536253,
        0.07246951821556649,
        0.09453215464115339,
        0.11748907061899413,
        0.1412895966869672,
        0.1658784439061037,
        0.19119588392690265,
        0.21717794788681044,
        0.24375664339024827,
        0.27086018874987416,
        0.2984132635982861,
        0.3263372749133619,
        0.35455063743817883,
        0.38296906741817976,
        0.41150588852421693,
        0.440072348780486,
        0.46857794727139757,
        0.49693076936126934,
        0.5250378291255393,
        0.5528054176621273,
        0.5801394559267345,
        0.6069458507163719,
        0.633130852411314,
        0.6586014130770559,
        0.6832655435247397,
        0.7070326679309185,
        0.7298139746254457,
        0.7515227616696749,
        0.7720747758659883,
        0.7913885438638604,
        0.809385694057114,
        0.8259912680016388,
        0.8411340201224474,
        0.8547467045234418,
        0.8667663477624132,
        0.8771345065074738,
        0.8857975090490534,
        0.8927066797036096,
        0.8978185452110049,
        0.9010950222968901,
        0.9025035856440868,
        0.9020174155926174,
        0.8996155249664,
        0.8952828645053683,
        0.8890104064646209,
        0.8807952060267795,
        0.8706404402597453,
        0.8585554244391297,
        0.8445556056424544,
        0.8286625336104513,
        0.8109038089590432,
        0.7913130089135756,
        0.7699295908241768,
        0.7467987738074815,
        0.7219713989449406,
        0.6955037685513107,
        0.6674574651082575,
        0.6378991505370734,
        0.6069003465609241,
        0.5745371969805677,
        0.5408902127577725,
        0.5060440008674867,
        0.4700869779428732,
        0.4331110697964008,
        0.39521139795501053,
        0.356485954397791,
        0.3170352657303422,
        0.27696204807093233,
        0.23637085395953134,
        0.19536771263159128,
        0.1540597650240693,
        0.11255489490138407,
        0.07096135750384786,
        0.0293874071304078,
        -0.012059074928621488,
        -0.053270950694911834,
        -0.09414219263485327,
        -0.13456824622773705,
        -0.1744463865936256,
        -0.21367606782873327,
        -0.25215926372499775,
        -0.2898007985845093,
        -0.3265086668785591,
        -0.362194340544975,
        -0.3967730627660467,
        -0.4301641271225221,
        -0.46229114107658154,
        -0.4930822727982632,
        -0.5224704804151599,
        -0.5503937228341789,
        -0.5767951513563985,
        -0.601623281381338,
        -0.6248321435749724,
        -0.6463814139562264,
        -0.6662365224392202,
        -0.6843687394528366,
        -0.7007552403449137,
        -0.715379147365236,
        -0.7282295491090898,
        -0.7393014973911992,
        -0.7485959816079635,
        -0.7561198807337481,
        -0.7618858931841974,
        -0.7659124448657935,
        -0.7682235758158309,
        -0.7688488059203007,
        -0.767822980278518,
        -0.7651860948624064,
        -0.7609831031948195,
        -0.7552637048448647,
        -0.7480821166085848,
        -0.7394968273102949,
        -0.7295703372230802,
        -0.7183688831662022,
        -0.7059621503922033,
        -0.6924229724271135,
        -0.6778270200731659,
        -0.6622524808246385,
        -0.645779729983669,
        -0.6284909947940579,
        -0.6104700129369769,
        -0.5918016867531208,
        -0.5725717345710218,
        -0.552866340531009,
        -0.532771804298517,
        -0.5123741920591971,
        -0.49175899018149294,
        -0.47101076292011357,
        -0.4502128155161411,
        -0.42944686402648474,
        -0.4087927131871049,
        -0.3883279435809648,
        -0.36812760934324323,
        -0.3482639475929797,
        -0.32880610073233635,
        -0.3098198527021507,
        -0.29136738022564185,
        -0.27350702001128235,
        -0.25629305282115133,
        -0.23977550524285451,
        -0.22399996993153248,
        -0.20900744501394547,
        -0.1948341932693451,
        -0.1815116216221762,
        -0.16906618139988872,
        -0.15751928972560747,
        -0.14688727233043974,
        -0.1371813279841369,
        -0.12840751465600647,
        -0.12056675743073023,
        -0.1136548781164424,
        -0.10766264639539408,
        -0.10257585228113283,
        -0.0983753995606822,
        -0.09503741981607677,
        -0.09253340653711381,
        -0.09083036875664247,
        -0.08989100356147761,
        -0.08967388675635271,
        -0.09013368088557708,
        -0.09122135974747378,
        -0.09288444847055362,
        -0.09506727815797203
      ],
      "ci_lo": [
        -0.6046062043940064,
        -0.6075538043794798,
        -0.6108323829446356,
        -0.6143752157308469,
        -0.6181138960574839,
        -0.6219786568150453,
        -0.6258986982277457,
        -0.6298025202042967,
        -0.633618257972543,
        -0.6372740196745259,
        -0.6406982245836605,
        -0.6438199405952473,
        -0.64656921963569,
        -0.6488774296347932,
        -0.6506775817095207,
        -0.6519046512168029,
        -0.6524958913475305,
        -0.6523911379539094,
        -0.651533104327944,
        -0.6498676646800919,
        -0.6473441251040839,
        -0.6439154808565747,
        -0.6395386588286409,
        -0.6341747441401118,
        -0.6277891898472102,
        -0.620352008818845,
        -0.6118379469069596,
        -0.6022266366113737,
        -0.5915027305192836,
        -0.5796560138837276,
        -0.5666814957934838,
        -0.5525794784787113,
        -0.5373556043916633,
        -0.521020880799612,
        -0.503591681727117,
        -0.48508972718648397,
        -0.4655420397380405,
        -0.44498087852514745,
        -0.42344365103199155,
        -0.4009728029145247,
        -0.3776156863557619,
        -0.3534244074953232,
        -0.3284556535789499,
        -0.302770500566063,
        -0.27643420202160274,
        -0.24951596020179884,
        -0.22208868032156343,
        -0.19422870906335976,
        -0.16601555845320448,
        -0.13753161628850336,
        -0.10886184435438034,
        -0.08009346570977927,
        -0.05131564236176722,
        -0.022619144676044756,
        0.005903986106284509,
        0.034160780861011375,
        0.06205768969014508,
        0.08950093175582269,
        0.11639684645263965,
        0.1426522445447735,
        0.16817475791267428,
        0.1928731865779132,
        0.21665784170352048,
        0.2394408833003729,
        0.26113665140741127,
        0.28166198955425814,
        0.3009365593587234,
        0.3188831451583368,
        0.3354279476241078,
        0.35050086535578445,
        0.36403576351077954,
        0.3759707285733,
        0.3862483084259016,
        0.39481573694245553,
        0.4016251423792034,
        0.40663373889900656,
        0.40980400062293526,
        0.4111038176628255,
        0.41050663364821793,
        0.40799156432105044,
        0.40354349683142526,
        0.39715316942760653,
        0.388817231292935,
        0.37853828234146375,
        0.3663248928426759,
        0.3521916028035045,
        0.33615890109299473,
        0.31825318435116867,
        0.2985066957790415,
        0.27695744396119854,
        0.2536491019260026,
        0.2286308867013755,
        0.20195741967640607,
        0.1736885681308653,
        0.14388926834637372,
        0.11262933076461151,
        0.07998322770995198,
        0.04602986424640676,
        0.010852332792115393,
        -0.025462347831029686,
        -0.0628235081794748,
        -0.10113711801184644,
        -0.14030608930646082,
        -0.18023059156515425,
        -0.220808378435898,
        -0.2619351246258623,
        -0.30350477201577153,
        -0.34540988382603,
        -0.38754200562607555,
        -0.42979203192141074,
        -0.4720505769988358,
        -0.5142083486603488,
        -0.556156523431146,
        -0.5977871217879199,
        -0.6389933819213267,
        -0.6796701305217296,
        -0.7197141490610284,
        -0.7590245340360594,
        -0.7975030496411744,
        -0.8350544713495729,
        -0.8715869189048019,
        -0.9070121772555964,
        -0.9412460040087847,
        -0.9742084220258821,
        -1.0058239958489625,
        -1.0360220907097273,
        -1.0647371129518621,
        -1.0919087307799922,
        -1.1174820743380902,
        -1.1414079142153122,
        -1.163642817577029,
        -1.1841492812226464,
        -1.2028958409787753,
        -1.2198571569457437,
        -1.2350140742266413,
        -1.2483536588803459,
        -1.259869208952755,
        -1.2695602405531012,
        -1.2774324490542834,
        -1.283497645607089,
        -1.2877736692675747,
        -1.2902842751443013,
        -1.2910589990771726,
        -1.290132999461969,
        -1.2875468769339085,
        -1.283346472719403,
        -1.2775826465572462,
        -1.2703110351784557,
        -1.261591792417577,
        -1.251489312107088,
        -1.2400719349803109,
        -1.2274116408766167,
        -1.2135837276053352,
        -1.1986664778813574,
        -1.182740815795618,
        -1.1658899543271075,
        -1.1481990354395757,
        -1.1297547643352646,
        -1.1106450394596985,
        -1.0909585798654708,
        -1.0707845515490004,
        -1.050212194372195,
        -1.0293304511708659,
        -1.00822760063355,
        -0.9869908955082219,
        -0.9657062076603462,
        -0.9444576814640993,
        -0.9233273969596771,
        -0.9023950441537648,
        -0.881737609778023,
        -0.8614290777522404,
        -0.841540144525329,
        -0.8221379503891664,
        -0.8032858277780464,
        -0.7850430674809674,
        -0.7674647036057618,
        -0.7506013180439055,
        -0.7344988650933469,
        -0.7191985168045476,
        -0.7047365295226626,
        -0.6911441320069813,
        -0.6784474354178491,
        -0.6666673653717071,
        -0.6558196161769697,
        -0.645914627277481,
        -0.6369575818464697,
        -0.6289484273924013,
        -0.621881918159028,
        -0.6157476790253027,
        -0.6105302905366932,
        -0.6062093946277859,
        -0.6027598205268807,
        -0.6001517302665338,
        -0.5983507831596244,
        -0.597318318538519,
        -0.5970115559951925,
        -0.5973838123027928,
        -0.5983847341440459,
        -0.5999605457191701,
        -0.6020543102556101
      ],
      "ci_hi": [
        0.4091836962972495,
        0.406043532205432,
        0.402561721442308,
        0.3988028298737001,
        0.3948332228423575,
        0.3907207506122422,
        0.38653442722842374,
        0.3823441041766436,
        0.3782201402432722,
        0.3742330689862454,
        0.37045326523074995,
        0.3669506120000453,
        0.3637941692820703,
        0.3610518460165937,
        0.35879007666587226,
        0.35707350370435853,
        0.35596466733024773,
        0.355523703663887,
        0.3558080526556144,
        0.3568721768788027,
        0.3587672923331096,
        0.36154111232851405,
        0.36523760546303846,
        0.3698967686464522,
        0.3755544160590819,
        0.38224198486945743,
        0.38998635846724616,
        0.39880970789906167,
        0.4087293521246157,
        0.41975763763956264,
        0.4319018379395521,
        0.44516407322768736,
        0.4595412506949924,
        0.475025025630828,
        0.49160178354760387,
        0.5092526434317679,
        0.527953482160997,
        0.5476749800558725,
        0.5683826874631245,
        0.5900371121968315,
        0.6125938275937503,
        0.6360036008692576,
        0.6602125413911574,
        0.6851622684198684,
        0.7107900977952236,
        0.7370292469822954,
        0.7638090578213117,
        0.791055236259932,
        0.8186901082799283,
        0.8466328911648611,
        0.8747999791907399,
        0.9031052427582131,
        0.9314603399227392,
        0.9597750392188399,
        0.9879575526162542,
        1.0159148773900673,
        1.0435531456341096,
        1.0707779800976465,
        1.097494854980104,
        1.1236094602778544,
        1.1490280682414376,
        1.1736579004715662,
        1.1974074941583164,
        1.2201870659505185,
        1.2419088719319387,
        1.2624875621777183,
        1.2818405283689973,
        1.2998882429558911,
        1.3165545883791698,
        1.3317671748891104,
        1.345457645536104,
        1.3575619669515264,
        1.368020704589046,
        1.3767792811556512,
        1.3837882170280158,
        1.3890033515230034,
        1.3923860439708449,
        1.3939033536253482,
        1.3935281975370168,
        1.3912394856117496,
        1.3870222321793113,
        1.3808676435016354,
        1.372773180760624,
        1.3627425981780268,
        1.3507859560355835,
        1.3369196084814043,
        1.3211661661279077,
        1.3035544335669178,
        1.2841193220481097,
        1.262901737687155,
        1.2399484456889605,
        1.2153119111885056,
        1.1890501174262154,
        1.1612263620856498,
        1.131909032727773,
        1.1011713623572366,
        1.0690911662511835,
        1.0357505612691382,
        1.0012356689428579,
        0.9656363037167761,
        0.9290456477722764,
        0.8915599139218675,
        0.8532779981020429,
        0.8143011230258386,
        0.7747324745777626,
        0.734676832544925,
        0.6942401972789541,
        0.6535294138741686,
        0.6126517954288436,
        0.5717147469291064,
        0.5308253912596513,
        0.4900901988031059,
        0.4496146220413223,
        0.40950273651821345,
        0.36985688946585266,
        0.3307773573344784,
        0.2923620134035618,
        0.2547060065860639,
        0.2179014524721557,
        0.1820371375924547,
        0.14719823781485186,
        0.11346605172350305,
        0.08091774976374039,
        0.04962613987271902,
        0.019659450252436095,
        -0.008918870120592559,
        -0.0360503327164956,
        -0.06168157193280488,
        -0.08576448842458595,
        -0.10825637293463264,
        -0.12912001033542375,
        -0.14832376365579392,
        -0.16584163792689777,
        -0.1816533237440835,
        -0.19574422050383078,
        -0.20810543933783365,
        -0.21873378582964342,
        -0.22763172266282572,
        -0.23480731241321284,
        -0.24027414076130582,
        -0.2440512204640123,
        -0.24616287648736057,
        -0.2466386127634289,
        -0.24551296109506704,
        -0.24282531279090436,
        -0.23861973367023603,
        -0.23294476313248313,
        -0.22585319803871395,
        -0.2174018622030126,
        -0.20765136233907233,
        -0.19666583135209348,
        -0.1845126599077901,
        -0.1712622172488918,
        -0.15698756226497435,
        -0.14176414585365893,
        -0.12566950564023038,
        -0.10878295414854,
        -0.09118526153868911,
        -0.07295833404654317,
        -0.054184889276572945,
        -0.03494812951301751,
        -0.01533141422483908,
        0.004582067052471661,
        0.024709620270564114,
        0.04496936966799481,
        0.06528057662806397,
        0.08556395341112971,
        0.10574197058546725,
        0.12573915699183524,
        0.14548239109153654,
        0.164901182566281,
        0.18392794306065624,
        0.20249824498486507,
        0.22055106732676272,
        0.2380290274584027,
        0.25487859796345913,
        0.2710503075581965,
        0.286498925230282,
        0.3011836267766566,
        0.3150681429839725,
        0.32812088876262896,
        0.3403150726180717,
        0.3516287859204922,
        0.3620450715160902,
        0.3715519713092072,
        0.3801425525344568,
        0.3878149125309409,
        0.3945721619261433,
        0.4004223862345145,
        0.40537858597442744,
        0.4094585955064215,
        0.4126849808947271,
        0.4150849171923061,
        0.41669004564633955,
        0.4175363114155638,
        0.41766378248248714,
        0.4171164505316387,
        0.4159420146490983,
        0.41419164877806286,
        0.41191975393966607
      ]
    },
    "lunar": {
      "phase": [
        0.0,
        0.005,
        0.01,
        0.015,
        0.02,
        0.025,
        0.03,
        0.035,
        0.04,
        0.045,
        0.05,
        0.055,
        0.06,
        0.065,
        0.07,
        0.075,
        0.08,
        0.085,
        0.09,
        0.095,
        0.1,
        0.105,
        0.11,
        0.115,
        0.12,
        0.125,
        0.13,
        0.135,
        0.14,
        0.145,
        0.15,
        0.155,
        0.16,
        0.165,
        0.17,
        0.17500000000000002,
        0.18,
        0.185,
        0.19,
        0.195,
        0.2,
        0.20500000000000002,
        0.21,
        0.215,
        0.22,
        0.225,
        0.23,
        0.23500000000000001,
        0.24,
        0.245,
        0.25,
        0.255,
        0.26,
        0.265,
        0.27,
        0.275,
        0.28,
        0.28500000000000003,
        0.29,
        0.295,
        0.3,
        0.305,
        0.31,
        0.315,
        0.32,
        0.325,
        0.33,
        0.335,
        0.34,
        0.34500000000000003,
        0.35000000000000003,
        0.355,
        0.36,
        0.365,
        0.37,
        0.375,
        0.38,
        0.385,
        0.39,
        0.395,
        0.4,
        0.405,
        0.41000000000000003,
        0.41500000000000004,
        0.42,
        0.425,
        0.43,
        0.435,
        0.44,
        0.445,
        0.45,
        0.455,
        0.46,
        0.465,
        0.47000000000000003,
        0.47500000000000003,
        0.48,
        0.485,
        0.49,
        0.495,
        0.5,
        0.505,
        0.51,
        0.515,
        0.52,
        0.525,
        0.53,
        0.535,
        0.54,
        0.545,
        0.55,
        0.555,
        0.56,
        0.5650000000000001,
        0.5700000000000001,
        0.5750000000000001,
        0.58,
        0.585,
        0.59,
        0.595,
        0.6,
        0.605,
        0.61,
        0.615,
        0.62,
        0.625,
        0.63,
        0.635,
        0.64,
        0.645,
        0.65,
        0.655,
        0.66,
        0.665,
        0.67,
        0.675,
        0.68,
        0.685,
        0.6900000000000001,
        0.6950000000000001,
        0.7000000000000001,
        0.705,
        0.71,
        0.715,
        0.72,
        0.725,
        0.73,
        0.735,
        0.74,
        0.745,
        0.75,
        0.755,
        0.76,
        0.765,
        0.77,
        0.775,
        0.78,
        0.785,
        0.79,
        0.795,
        0.8,
        0.805,
        0.81,
        0.8150000000000001,
        0.8200000000000001,
        0.8250000000000001,
        0.8300000000000001,
        0.835,
        0.84,
        0.845,
        0.85,
        0.855,
        0.86,
        0.865,
        0.87,
        0.875,
        0.88,
        0.885,
        0.89,
        0.895,
        0.9,
        0.905,
        0.91,
        0.915,
        0.92,
        0.925,
        0.93,
        0.935,
        0.9400000000000001,
        0.9450000000000001,
        0.9500000000000001,
        0.9550000000000001,
        0.96,
        0.965,
        0.97,
        0.975,
        0.98,
        0.985,
        0.99,
        0.995
      ],
      "value": [
        0.3953429386838324,
        0.3983871306487415,
        0.40127658621902595,
        0.4040384444464665,
        0.4066989109977919,
        0.40928311811427515,
        0.4118149902618886,
        0.41431711603693694,
        0.416810626865931,
        0.4193150830101513,
        0.4218483673549865,
        0.4244265874318463,
        0.4270639860863662,
        0.429772861170881,
        0.43256349460188526,
        0.4354440910845746,
        0.43842072676671506,
        0.44149730804320453,
        0.44467554069089044,
        0.44795490947069977,
        0.4513326682910743,
        0.4548038409832397,
        0.4583612326951825,
        0.4619954518675048,
        0.4656949427107609,
        0.46944602806063057,
        0.4732329624445129,
        0.47703799515101114,
        0.480841443052483,
        0.4846217728905283,
        0.48835569269512596,
        0.49201825197027765,
        0.49558295024261534,
        0.4990218535346367,
        0.5023057182911651,
        0.505404122256451,
        0.5082856017701409,
        0.5109177949232594,
        0.5132675899905003,
        0.515301278532589,
        0.5169847125423618,
        0.5182834649905769,
        0.5191629931124178,
        0.5195888037632127,
        0.519526620162135,
        0.5189425493356107,
        0.5178032495678648,
        0.5160760971645051,
        0.5137293518362889,
        0.5107323200142233,
        0.5070555154139215,
        0.5026708161766217,
        0.4975516179264742,
        0.49167298209852306,
        0.4850117789092383,
        0.4775468243613938,
        0.46925901069747195,
        0.4601314297405217,
        0.45014948858839576,
        0.43930101715645326,
        0.42757636709500946,
        0.41496850164092985,
        0.4014730759976726,
        0.38708850787463556,
        0.3718160378547287,
        0.35565977929852055,
        0.3386267575339207,
        0.32072693812204667,
        0.3019732440324597,
        0.28238156160422745,
        0.26197073521307,
        0.24076255060902674,
        0.21878170693345209,
        0.19605577746854275,
        0.17261515921683235,
        0.14849301145201882,
        0.12372518342587785,
        0.09835013145877694,
        0.07240882568318938,
        0.045944646750500306,
        0.019003272851133512,
        -0.008367442563591454,
        -0.0361176019325167,
        -0.0641954031479843,
        -0.09254728703725607,
        -0.1211180922361989,
        -0.14985121689976075,
        -0.17868878666631097,
        -0.20757182826763831,
        -0.23644044815353799,
        -0.2652340154794294,
        -0.2938913487875344,
        -0.32235090569676894,
        -0.3505509749038257,
        -0.3784298697879094,
        -0.40592612290434865,
        -0.4329786806478155,
        -0.45952709736419867,
        -0.48551172819128446,
        -0.510873919912304,
        -0.5355561991130828,
        -0.5595024569429818,
        -0.5826581297919644,
        -0.6049703752109653,
        -0.6263882424201911,
        -0.6468628367699588,
        -0.6663474775411721,
        -0.6847978484973608,
        -0.7021721406273665,
        -0.7184311865470567,
        -0.7335385860598509,
        -0.7474608224091572,
        -0.7601673687909721,
        -0.7716307847317068,
        -0.7818268019746656,
        -0.7907343995583362,
        -0.798335867810614,
        -0.8046168610251281,
        -0.8095664386287625,
        -0.8131770946931539,
        -0.8154447756871824,
        -0.8163688864121081,
        -0.8159522841058602,
        -0.8142012607478855,
        -0.811125513640722,
        -0.8067381043889279,
        -0.8010554064399709,
        -0.7940970413950081,
        -0.7858858043399937,
        -0.7764475784890632,
        -0.7658112394725167,
        -0.7540085496407758,
        -0.7410740427932969,
        -0.7270448997774162,
        -0.7119608154363429,
        -0.6958638574178984,
        -0.6787983173859511,
        -0.6608105552047472,
        -0.6419488366923228,
        -0.6222631655628839,
        -0.6018051101992583,
        -0.580627625915277,
        -0.5587848733840894,
        -0.536332033921939,
        -0.513325122327733,
        -0.4898207979868386,
        -0.4658761749528335,
        -0.4415486317234964,
        -0.41689562142703734,
        -0.391974483131532,
        -0.3668422549846712,
        -0.3415554898823814,
        -0.3161700743535361,
        -0.29074105133402395,
        -0.2653224474868392,
        -0.23996710570571023,
        -0.21472652341818899,
        -0.18965069728009756,
        -0.16478797482696012,
        -0.14018491361954785,
        -0.11588614839014533,
        -0.09193426666361863,
        -0.06836969329306655,
        -0.045230584313809594,
        -0.022552730481948585,
        -0.0003694708247590217,
        0.021288383509978748,
        0.042392614859876554,
        0.06291765390541185,
        0.08284062361822664,
        0.10214137218303812,
        0.12080249481984168,
        0.1388093444772252,
        0.15615003141183806,
        0.17281541171312853,
        0.18879906487627846,
        0.20409726056958,
        0.21870891478521962,
        0.23263553560432146,
        0.24588115884803466,
        0.25845227392625725,
        0.27035774023408915,
        0.2816086944831985,
        0.2922184493907637,
        0.3022023841824344,
        0.31157782739764617,
        0.3203639325155716,
        0.32858154694779895,
        0.3362530749694612,
        0.3434023351838328,
        0.3500544131363258,
        0.3562355097122343,
        0.3619727859684402,
        0.3672942050625512,
        0.37222837195350733,
        0.37680437155557645,
        0.38105160603278415,
        0.3849996319231896,
        0.38867799778203327,
        0.39211608302961243
      ],
      "ci_lo": [
        -0.10749666097847788,
        -0.10446956582627026,
        -0.10156158119235259,
        -0.09874601244164305,
        -0.09599751219043173,
        -0.09329221478330446,
        -0.09060786032265844,
        -0.08792390768794361,
        -0.08522163606036953,
        -0.08248423455197451,
        -0.07969687962531208,
        -0.07684680008106787,
        -0.07392332948505798,
        -0.07091794600243617,
        -0.06782429970455706,
        -0.06463822751160264,
        -0.06135775603040772,
        -0.057983092640350564,
        -0.05451660526909635,
        -0.05096279138257914,
        -0.04732823678815978,
        -0.043621564914672284,
        -0.039853377286455716,
        -0.03603618594909269,
        -0.03218433863133424,
        -0.028313937439842785,
        -0.024442751880623614,
        -0.020590126983506485,
        -0.01677688727444293,
        -0.01302523729585292,
        -0.0093586593194121,
        -0.005801808830554034,
        -0.0023804082919243186,
        0.0008788603833516095,
        0.003948464295708332,
        0.006800128684558926,
        0.009404946512475476,
        0.011733488372893064,
        0.013755912645566137,
        0.01544207587398927,
        0.01676164337837971,
        0.01768420014597738,
        0.018179362057193393,
        0.01821688751180861,
        0.017766789514637837,
        0.016799448265862327,
        0.015285724278779056,
        0.013197072018454215,
        0.010505654020148691,
        0.007184455407908685,
        0.0032073986928012888,
        -0.0014505413117754662,
        -0.006813222662278906,
        -0.012903221790300567,
        -0.019741719625774756,
        -0.027348388659854617,
        -0.035741281303406536,
        -0.044936719928367785,
        -0.054949189007607036,
        -0.06579122979448254,
        -0.07747333800623812,
        -0.0900038649959502,
        -0.10338892291624341,
        -0.1176322943946928,
        -0.1327353472559576,
        -0.14869695483938483,
        -0.1655134224731415,
        -0.18317842067673307,
        -0.20168292567283747,
        -0.22101516779626196,
        -0.2411605883919452,
        -0.2621018057944908,
        -0.2838185909778477,
        -0.3062878534543996,
        -0.3294836379868178,
        -0.3533771326523892,
        -0.3779366887671563,
        -0.40312785313502275,
        -0.42891341303425723,
        -0.45525345429,
        -0.4821054327061654,
        -0.509424259043762,
        -0.5371623976355483,
        -0.5652699786202036,
        -0.5936949236640898,
        -0.6223830849171503,
        -0.6512783968235335,
        -0.6803230402797344,
        -0.7094576185058493,
        -0.7386213438718141,
        -0.767752234802744,
        -0.7967873217783857,
        -0.8256628613433996,
        -0.8543145569597808,
        -0.8826777854616766,
        -0.9106878278173745,
        -0.9382801028639038,
        -0.965390402656789,
        -0.9919551280707071,
        -1.017911523295575,
        -1.043197907895883,
        -1.0677539051377307,
        -1.0915206653365321,
        -1.114441083037196,
        -1.1364600069061461,
        -1.1575244412891768,
        -1.1775837384693617,
        -1.1965897807434556,
        -1.2144971515222653,
        -1.2312632947489521,
        -1.246848662018266,
        -1.2612168468682583,
        -1.2743347058034322,
        -1.2861724656938343,
        -1.2967038172778382,
        -1.3059059945768345,
        -1.3137598401074113,
        -1.3202498558506326,
        -1.3253642400084225,
        -1.3290949096437088,
        -1.3314375093636848,
        -1.332391406264172,
        -1.3319596714075155,
        -1.3301490481565947,
        -1.326969907733283,
        -1.3224361924110148,
        -1.3165653467879288,
        -1.3093782376193384,
        -1.3008990627160821,
        -1.2911552494386256,
        -1.2801773433357613,
        -1.26799888749151,
        -1.2546562931545475,
        -1.2401887022314453,
        -1.2246378422284583,
        -1.2080478742269398,
        -1.190465234475035,
        -1.1719384701735756,
        -1.1525180700274893,
        -1.1322562901261115,
        -1.1112069757069256,
        -1.0894253793480788,
        -1.0669679761259423,
        -1.0438922762655085,
        -1.0202566358039664,
        -0.9961200657818108,
        -0.9715420404715815,
        -0.9465823051521947,
        -0.9213006839369116,
        -0.8957568881655265,
        -0.8700103258763006,
        -0.8441199128806028,
        -0.8181438859728498,
        -0.7921396188200892,
        -0.7661634410890236,
        -0.7402704613830059,
        -0.7145143945771057,
        -0.688947394155021,
        -0.6636198901668269,
        -0.6385804334404344,
        -0.6138755466914664,
        -0.5895495831850532,
        -0.5656445936080493,
        -0.5422002018103688,
        -0.5192534900687836,
        -0.49683889451471097,
        -0.4749881113486113,
        -0.4537300144369821,
        -0.4330905848530977,
        -0.4130928528794105,
        -0.39375685293768414,
        -0.3750995918527357,
        -0.3571350307873984,
        -0.33987408111053674,
        -0.32332461437750654,
        -0.3074914865142459,
        -0.29237657620346125,
        -0.2779788373753035,
        -0.2642943656070106,
        -0.2513164781375784,
        -0.2390358071060915,
        -0.22744040552730738,
        -0.21651586542673623,
        -0.20624544747104434,
        -0.19661022134914857,
        -0.18758921608580192,
        -0.17915957940344868,
        -0.1712967451902277,
        -0.1639746080825094,
        -0.15716570412947561,
        -0.1508413964749511,
        -0.14497206496789417,
        -0.13952729859738267,
        -0.1344760896402974,
        -0.129787028409857,
        -0.12542849750027796,
        -0.12136886443677258,
        -0.1175766716604581,
        -0.11402082280421677,
        -0.11067076424781852
      ],
      "ci_hi": [
        0.8981825383461427,
        0.9012438271237533,
        0.9041147536304045,
        0.9068229013345761,
        0.9093953341860155,
        0.9118584510118548,
        0.9142378408464357,
        0.9165581397618174,
        0.9188428897922316,
        0.9211144005722771,
        0.923393614335285,
        0.9256999749447605,
        0.9280513016577904,
        0.9304636683441981,
        0.9329512889083276,
        0.9355264096807518,
        0.9381992095638378,
        0.9409777087267597,
        0.9438676866508773,
        0.9468726103239786,
        0.9499935733703084,
        0.9532292468811517,
        0.9565758426768207,
        0.9600270896841023,
        0.963574224052856,
        0.9672059935611039,
        0.9709086767696494,
        0.9746661172855288,
        0.9784597733794089,
        0.9822687830769096,
        0.986070044709664,
        0.9898383127711093,
        0.993546308777155,
        0.9971648466859218,
        1.0006629722866218,
        1.0040081158283432,
        1.0071662570278064,
        1.0101021014736258,
        1.0127792673354343,
        1.0151604811911887,
        1.0172077817063438,
        1.0188827298351764,
        1.020146624167642,
        1.020960720014617,
        1.0212864508096322,
        1.0210856504053591,
        1.0203207748569505,
        1.018955122310556,
        1.016953049652429,
        1.0142801846205378,
        1.0109036321350415,
        1.0067921736650187,
        1.0019164585152271,
        0.9962491859873467,
        0.9897652774442514,
        0.9824420373826421,
        0.9742593026983504,
        0.9651995794094111,
        0.9552481661843986,
        0.9443932641073891,
        0.932626072196257,
        0.9199408682778099,
        0.9063350749115886,
        0.8918093101439639,
        0.876367422965415,
        0.8600165134364259,
        0.8427669375409829,
        0.8246322969208264,
        0.8056294137377569,
        0.7857782910047169,
        0.7651020588180852,
        0.7436269070125443,
        0.7213820048447519,
        0.6983994083914851,
        0.6747139564204825,
        0.6503631555564269,
        0.6253870556189121,
        0.5998281160525766,
        0.573731064400636,
        0.5471427477910007,
        0.5201119784084325,
        0.4926893739165791,
        0.46492719377051495,
        0.4368791723242349,
        0.40860034958957775,
        0.38014690044475247,
        0.35157596302401195,
        0.32294546694711257,
        0.2943139619705727,
        0.2657404475647382,
        0.23728420384388527,
        0.2090046242033169,
        0.18096104994986173,
        0.15321260715212937,
        0.12581804588585788,
        0.09883558200867709,
        0.07232274156827284,
        0.046336207928391604,
        0.020931671688138087,
        -0.003836316529032824,
        -0.027914490330282482,
        -0.05125100874823307,
        -0.07379559424739668,
        -0.09549966738473448,
        -0.11631647793423605,
        -0.13620123225074077,
        -0.15511121661298244,
        -0.17300591625126593,
        -0.18984712973246776,
        -0.20559907834516122,
        -0.22022851010143596,
        -0.23370479795005616,
        -0.24600003177851215,
        -0.2570891037695794,
        -0.26694978667149305,
        -0.27556280453983795,
        -0.2829118955138168,
        -0.2889838661996236,
        -0.29376863724910274,
        -0.297259279742599,
        -0.29945204201068,
        -0.3003463665600443,
        -0.2999448968042049,
        -0.2982534733391762,
        -0.29528111954816105,
        -0.29104001636684085,
        -0.2855454660920128,
        -0.2788158451706779,
        -0.2708725459639052,
        -0.26173990753950094,
        -0.25144513560927206,
        -0.24001821179004157,
        -0.22749179243204642,
        -0.21390109732338702,
        -0.19928378864422758,
        -0.1836798406088569,
        -0.16713140029686724,
        -0.14968264023591893,
        -0.13137960335715637,
        -0.1122700409996561,
        -0.09240324469159089,
        -0.07182987248247508,
        -0.05060177064223648,
        -0.0287717915783694,
        -0.006393608851499533,
        0.016478469808133556,
        0.039789690565914526,
        0.0634850417052018,
        0.08750944108283693,
        0.11180792190246253,
        0.13632581590695808,
        0.16100893311584008,
        0.18580373726577754,
        0.2106575161520413,
        0.23551854611534517,
        0.26033624997158544,
        0.2850613477407278,
        0.30964599959482586,
        0.3340439405129066,
        0.3582106062013387,
        0.3821032499111757,
        0.40568104985781595,
        0.42890520702191615,
        0.4517390331827496,
        0.4741480291048865,
        0.49609995286519293,
        0.5175648783685688,
        0.5385152441567351,
        0.5589258926639213,
        0.5787741001158637,
        0.5980395973037604,
        0.616704581492419,
        0.6347537197418488,
        0.6521741439342129,
        0.6689554378037637,
        0.6850896162668028,
        0.7005710973426212,
        0.7153966669457428,
        0.7295654368156534,
        0.7430787958336477,
        0.755940354958606,
        0.7681558859954857,
        0.7797332543931332,
        0.7906823462525717,
        0.8010149897140173,
        0.8107448708810943,
        0.8198874444345918,
        0.8284598390858255,
        0.8364807580214318,
        0.8439703744971412,
        0.8509502227476027,
        0.8574430843923627,
        0.863472870534263,
        0.8690644997653998,
        0.8742437723168717,
        0.8790372406114308,
        0.8834720765023409,
        0.8875759355068373,
        0.8913768183682833,
        0.8949029303070434
      ]
    }
  },
  "covariates": [
    "diel",
    "tide",
    "lunar"
  ],
  "n_harmonics": 2,
  "reference_station": "haro_strait",
  "confidence": 0.0,
  "fitted_at": "2026-06-27T06:24:40.309386+00:00",
  "bin_hours": 1.0,
  "acoustic_span": [
    "2020-09-28T04:15:03.495901+00:00",
    "2021-05-09T11:00:21.174203+00:00"
  ],
  "detections_unreviewed_candidates": true,
  "season_extrapolated": true,
  "covariates_excluded": {
    "season": "dropped: phase coverage 0.75 < 0.90 (kernel would be extrapolated)"
  },
  "repr_id": "repr_96cc7ce94f4a5ed6",
  "run_id": "run_21687b911959df1c",
  "dataset_snapshot_id": "snap_84cef468f100c665"
}